{"learner":{"attributes":{"best_iteration":"99","best_ntree_limit":"100","scikit_learn":"{\"n_estimators\": 100, \"objective\": \"reg:squarederror\", \"max_depth\": null, \"max_leaves\": null, \"max_bin\": null, \"grow_policy\": null, \"learning_rate\": null, \"verbosity\": null, \"booster\": null, \"tree_method\": null, \"gamma\": null, \"min_child_weight\": null, \"max_delta_step\": null, \"subsample\": null, \"sampling_method\": null, \"colsample_bytree\": null, \"colsample_bylevel\": null, \"colsample_bynode\": null, \"reg_alpha\": null, \"reg_lambda\": null, \"scale_pos_weight\": null, \"base_score\": null, \"missing\": NaN, \"num_parallel_tree\": null, \"random_state\": null, \"n_jobs\": null, \"monotone_constraints\": null, \"interaction_constraints\": null, \"importance_type\": null, \"gpu_id\": null, \"validate_parameters\": null, \"predictor\": null, \"enable_categorical\": false, \"max_cat_to_onehot\": null, \"eval_metric\": null, \"early_stopping_rounds\": null, \"callbacks\": null, \"_estimator_type\": \"regressor\"}"},"feature_names":["condo","area","bathrooms","garage","rooms","piscina","elevador","quarto_de_servico","churrasqueira","escritorio"],"feature_types":["float","float","float","float","float","int","int","int","int","int"],"gradient_booster":{"model":{"gbtree_model_param":{"num_parallel_tree":"1","num_trees":"100","size_leaf_vector":"0"},"tree_info":[0,0,0,0,0,0,0,0,0,0,0,0,0,0,0,0,0,0,0,0,0,0,0,0,0,0,0,0,0,0,0,0,0,0,0,0,0,0,0,0,0,0,0,0,0,0,0,0,0,0,0,0,0,0,0,0,0,0,0,0,0,0,0,0,0,0,0,0,0,0,0,0,0,0,0,0,0,0,0,0,0,0,0,0,0,0,0,0,0,0,0,0,0,0,0,0,0,0,0,0],"trees":[{"base_weights":[2.945396E3,2.4573408E3,8.826053E3,1.874547E3,3.8908938E3,8.165484E3,1.9148445E4,1.6803445E3,2.8603354E3,3.5458062E3,6.241986E3,5.340744E3,9.177076E3,1.304522E3,1.9814265E3,5.2995557E3,2.7475476E3,2.9813535E3,3.9901953E3,5.2848716E3,7.1839697E3,1.3996666E3,5.4988535E3,7.9519165E3,1.1645229E4,2.4064666E3,1.2694164E3,1.7111699E3,2.1499377E3,2.3629827E3,3.1388442E3,2.5361055E3,3.2602332E3,3.559514E3,4.764221E3,5.7534814E3,3.905077E3,6.0797886E3,9.8745625E3,4.892212E3,7.112222E3,6.323097E3,9.130651E3,7.49625E2,2.7582083E3,1.1783807E3,1.5571008E3,1.6188295E3,2.1624126E3,2.007343E3,2.402781E3,1.8492285E3,2.5558025E3,1.83255E3,3.2411545E3,2.1910981E3,3.0156572E3,2.382725E3,3.3855833E3,3.3772932E3,4.9258423E3,4.349605E3,6.685533E3,2.499625E3,6.0560625E3,2.1996E3,4.4186665E3,1.0571E4,2.49975E3,2.1663333E3,6.503897E3],"categories":[],"categories_nodes":[],"categories_segments":[],"categories_sizes":[],"default_left":[1,1,1,1,1,1,0,1,1,1,1,1,1,1,1,0,1,1,1,1,1,0,1,1,0,1,1,1,1,1,1,1,1,1,1,1,1,0,1,0,0,1,0,0,0,0,0,0,0,0,0,0,0,0,0,0,0,0,0,0,0,0,0,0,0,0,0,0,0,0,0],"id":0,"left_children":[1,3,5,7,9,11,-1,13,15,17,19,21,23,25,27,-1,29,31,33,35,37,-1,39,41,-1,43,45,47,49,51,53,55,57,59,61,63,65,-1,67,-1,-1,69,-1,-1,-1,-1,-1,-1,-1,-1,-1,-1,-1,-1,-1,-1,-1,-1,-1,-1,-1,-1,-1,-1,-1,-1,-1,-1,-1,-1,-1],"loss_changes":[6.0600197E9,1.6285481E9,9.4826496E8,2.6206464E8,4.362706E8,3.9104E8,0E0,1.2946509E8,4.8165376E7,1.1226829E8,2.6046208E7,1.90976E7,2.4607232E8,1.7138496E7,2.57408E7,0E0,2.568832E7,1.9297664E7,7.438182E7,2.749056E6,3.800448E7,0E0,5.33376E6,9.202176E7,0E0,6.674088E6,1.146944E7,7.041408E6,9.382144E6,6.66592E6,8.227072E6,8.282816E6,6.562432E6,2.8178944E7,4.6598144E7,1.144512E7,1.6676E6,0E0,1.4663872E7,0E0,0E0,1.2965888E7,0E0,0E0,0E0,0E0,0E0,0E0,0E0,0E0,0E0,0E0,0E0,0E0,0E0,0E0,0E0,0E0,0E0,0E0,0E0,0E0,0E0,0E0,0E0,0E0,0E0,0E0,0E0,0E0,0E0],"parents":[2147483647,0,0,1,1,2,2,3,3,4,4,5,5,7,7,8,8,9,9,10,10,11,11,12,12,13,13,14,14,16,16,17,17,18,18,19,19,20,20,22,22,23,23,25,25,26,26,27,27,28,28,29,29,30,30,31,31,32,32,33,33,34,34,35,35,36,36,38,38,41,41],"right_children":[2,4,6,8,10,12,-1,14,16,18,20,22,24,26,28,-1,30,32,34,36,38,-1,40,42,-1,44,46,48,50,52,54,56,58,60,62,64,66,-1,68,-1,-1,70,-1,-1,-1,-1,-1,-1,-1,-1,-1,-1,-1,-1,-1,-1,-1,-1,-1,-1,-1,-1,-1,-1,-1,-1,-1,-1,-1,-1,-1],"split_conditions":[1.697E3,7.775E2,4.4825E3,6.339327E-1,8.05509E-1,8.05509E-1,5.7445337E3,3.735E2,5.5E1,1.7096798E0,9.929034E-1,2.6329452E-1,2.6165E3,1.25E1,4.995E2,1.5898668E3,5E-1,8.825E2,5E-1,1.5075E3,1.8584096E0,4.199E2,8.05509E-1,8.05509E-1,3.4935686E3,1.5652514E0,3.295E2,1.6783316E0,5E-1,1.6619674E0,1.6422205E0,5E-1,1.6197326E0,1.465E3,1.8062387E0,1.7577044E0,5E-1,1.8239366E3,1.053545E0,1.4676636E3,2.1336667E3,1.7015667E0,2.7391956E3,2.2488751E2,8.274625E2,3.5351422E2,4.6713028E2,4.8564886E2,6.487238E2,6.0220294E2,7.2083435E2,5.5476855E2,7.667408E2,5.49765E2,9.723464E2,6.5732947E2,9.046972E2,7.1481757E2,1.015675E3,1.013188E3,1.4777527E3,1.3048816E3,2.00566E3,7.498875E2,1.8168188E3,6.5988007E2,1.3256E3,3.1713E3,7.4992505E2,6.499E2,1.9511692E3],"split_indices":[0,0,0,3,3,2,0,0,0,1,2,3,0,0,0,0,8,0,8,0,1,0,3,3,0,1,0,1,5,1,1,5,1,0,1,1,5,0,2,0,0,1,0,0,0,0,0,0,0,0,0,0,0,0,0,0,0,0,0,0,0,0,0,0,0,0,0,0,0,0,0],"split_type":[0,0,0,0,0,0,0,0,0,0,0,0,0,0,0,0,0,0,0,0,0,0,0,0,0,0,0,0,0,0,0,0,0,0,0,0,0,0,0,0,0,0,0,0,0,0,0,0,0,0,0,0,0,0,0,0,0,0,0,0,0,0,0,0,0,0,0,0,0,0,0],"sum_hessian":[2.118E3,1.957E3,1.61E2,1.393E3,5.64E2,1.53E2,8E0,1.166E3,2.27E2,4.94E2,7E1,4.2E1,1.11E2,5.21E2,6.45E2,8E0,2.19E2,2.21E2,2.73E2,3.8E1,3.2E1,2E0,4E1,7.7E1,3.4E1,1.4E1,5.07E2,2.52E2,3.93E2,1.14E2,1.05E2,8.9E1,1.32E2,1.79E2,9.4E1,2.6E1,1.2E1,2.5E1,7E0,3.2E1,8E0,3.5E1,4.2E1,3E0,1.1E1,3.89E2,1.18E2,2.13E2,3.9E1,2.57E2,1.36E2,3.4E1,8E1,9E0,9.6E1,5.5E1,3.4E1,1.9E1,1.13E2,1.61E2,1.8E1,8E1,1.4E1,3E0,2.3E1,4E0,8E0,6E0,1E0,2E0,3.3E1],"tree_param":{"num_deleted":"0","num_feature":"10","num_nodes":"71","size_leaf_vector":"0"}},{"base_weights":[2.0838418E3,1.66867E3,5.641883E3,1.3144143E3,2.6206736E3,5.0177373E3,1.1059484E4,1.1742827E3,2.0247148E3,2.4147625E3,4.5694194E3,2.9070369E3,5.5272437E3,4.8302446E3,1.2607481E4,9.1675354E2,1.382821E3,1.6633597E3,2.4512446E3,2.267279E3,3.3245403E3,4.174201E3,7.133456E3,3.183598E3,1.368273E3,4.851423E3,6.837574E3,7.159182E2,5.5099263E3,8.259878E2,1.2171956E3,1.217503E3,1.5192969E3,1.428296E3,1.898125E3,2.3106914E3,4.715836E3,1.9328292E3,2.4219111E3,2.2689673E3,4.2762217E3,7.144098E3,3.86268E3,1.0913406E3,8.37115E3,1.7451431E3,3.4918958E3,1.6282646E3,-2.258346E2,4.981495E3,1.7882682E3,5.0283267E3,7.7268887E3,7.621997E2,1.2009401E3,9.865161E2,1.6319878E3,1.193263E3,2.379925E3,1.4196852E3,1.6927924E3,1.1035061E3,1.6073456E3,1.1502946E3,2.0425299E3,1.9347925E3,2.6619448E3,1.982201E3,1.3715824E3,2.1162393E3,2.6091616E3,1.48138E3,3.0628074E3,1.0964738E3,4.451656E3,1.6248063E3,9.091341E3,2.541869E3,4.196E3,6.898E2,3.573138E3,1.4091821E2,1.8526693E3,4.197209E3,5.685066E3,2.333861E3,-4.6984778E2,1.0503954E4,3.8363708E3,7.8900435E3,1.2529657E3],"categories":[],"categories_nodes":[],"categories_segments":[],"categories_sizes":[],"default_left":[1,1,1,1,1,1,1,1,1,1,1,1,1,1,0,1,1,1,1,1,1,1,1,1,1,1,1,0,0,1,1,1,1,1,1,1,0,1,1,1,1,1,1,0,0,0,1,1,0,1,1,1,1,0,0,0,0,0,0,0,0,0,0,0,0,0,0,0,0,0,0,0,0,0,0,0,0,0,0,0,0,0,0,0,0,0,0,0,0,0,0],"id":1,"left_children":[1,3,5,7,9,11,13,15,17,19,21,23,25,27,-1,29,31,33,35,37,39,41,43,45,47,49,51,-1,-1,53,55,57,59,61,63,65,-1,67,69,71,73,75,77,-1,-1,-1,79,81,-1,83,85,87,89,-1,-1,-1,-1,-1,-1,-1,-1,-1,-1,-1,-1,-1,-1,-1,-1,-1,-1,-1,-1,-1,-1,-1,-1,-1,-1,-1,-1,-1,-1,-1,-1,-1,-1,-1,-1,-1,-1],"loss_changes":[3.120768E9,6.3699814E8,6.917898E8,1.3557862E8,1.9521792E8,1.9901491E8,1.5124531E8,6.102976E7,3.0909888E7,5.51232E7,1.8864512E7,1.3092032E7,1.0851584E8,1.283392E7,0E0,1.322944E7,1.2567424E7,4.242208E6,2.156928E7,1.6264064E7,5.358528E7,1.3112832E7,2.825568E7,8.984192E6,3.683356E6,3.452083E7,4.481408E7,0E0,0E0,8.747328E6,9.776416E6,5.444224E6,3.576384E6,2.12256E6,4.12992E6,7.789216E6,0E0,9.66656E5,1.0104192E7,1.5469808E7,1.2969664E7,1.7470528E7,7.82496E6,0E0,0E0,0E0,3.68176E6,2.075298E6,0E0,3.352576E7,8.48863E6,9.023709E7,2.4970368E7,0E0,0E0,0E0,0E0,0E0,0E0,0E0,0E0,0E0,0E0,0E0,0E0,0E0,0E0,0E0,0E0,0E0,0E0,0E0,0E0,0E0,0E0,0E0,0E0,0E0,0E0,0E0,0E0,0E0,0E0,0E0,0E0,0E0,0E0,0E0,0E0,0E0,0E0],"parents":[2147483647,0,0,1,1,2,2,3,3,4,4,5,5,6,6,7,7,8,8,9,9,10,10,11,11,12,12,13,13,15,15,16,16,17,17,18,18,19,19,20,20,21,21,22,22,23,23,24,24,25,25,26,26,29,29,30,30,31,31,32,32,33,33,34,34,35,35,37,37,38,38,39,39,40,40,41,41,42,42,46,46,47,47,49,49,50,50,51,51,52,52],"right_children":[2,4,6,8,10,12,14,16,18,20,22,24,26,28,-1,30,32,34,36,38,40,42,44,46,48,50,52,-1,-1,54,56,58,60,62,64,66,-1,68,70,72,74,76,78,-1,-1,-1,80,82,-1,84,86,88,90,-1,-1,-1,-1,-1,-1,-1,-1,-1,-1,-1,-1,-1,-1,-1,-1,-1,-1,-1,-1,-1,-1,-1,-1,-1,-1,-1,-1,-1,-1,-1,-1,-1,-1,-1,-1,-1,-1],"split_conditions":[1.4905E3,7.695E2,3.27E3,6.339327E-1,8.05509E-1,1.7331938E0,1.8382545E0,3.735E2,5E-1,9.1443825E-1,1.8584096E0,8.05509E-1,2.245E3,1.6393871E0,3.7822446E3,5E-1,5.055E2,1.6974716E0,1.7720275E0,1.681895E0,5E-1,8.05509E-1,9.929034E-1,1.6436937E0,9.1443825E-1,2.1525E3,1.8491073E0,2.1477547E2,1.6529779E3,1.6795374E0,5E-1,1.8036717E0,5E-1,4.1E2,8.05509E-1,1.6865065E0,1.4147509E3,1.2695E3,9.305E2,9.1443825E-1,8.9E2,1.1505E3,1.7819805E0,3.274022E2,2.5113452E3,5.2354297E2,2.6329452E-1,1.6985159E0,-6.775038E1,8.05509E-1,2.22E3,1.7706468E0,3.22E3,2.2865993E2,3.6028204E2,2.9595483E2,4.8959634E2,3.5797888E2,7.1397754E2,4.2590558E2,5.0783774E2,3.3105185E2,4.822037E2,3.4508838E2,6.12759E2,5.8043774E2,7.985835E2,5.9466034E2,4.1147473E2,6.348718E2,7.8274854E2,4.4441403E2,9.188422E2,3.2894214E2,1.3354968E3,4.874419E2,2.7274023E3,7.6256067E2,1.2588E3,2.0694E2,1.0719414E3,4.2275467E1,5.5580084E2,1.2591627E3,1.7055199E3,7.001583E2,-1.4095435E2,3.1511863E3,1.1509113E3,2.3670132E3,3.758897E2],"split_indices":[0,0,0,3,3,1,1,0,5,2,1,4,0,1,0,6,0,1,1,1,5,4,2,1,2,0,1,0,0,1,5,1,5,0,4,1,0,0,0,4,0,0,1,0,0,0,3,1,0,3,0,1,0,0,0,0,0,0,0,0,0,0,0,0,0,0,0,0,0,0,0,0,0,0,0,0,0,0,0,0,0,0,0,0,0,0,0,0,0,0,0],"split_type":[0,0,0,0,0,0,0,0,0,0,0,0,0,0,0,0,0,0,0,0,0,0,0,0,0,0,0,0,0,0,0,0,0,0,0,0,0,0,0,0,0,0,0,0,0,0,0,0,0,0,0,0,0,0,0,0,0,0,0,0,0,0,0,0,0,0,0,0,0,0,0,0,0,0,0,0,0,0,0,0,0,0,0,0,0,0,0,0,0,0,0],"sum_hessian":[2.118E3,1.898E3,2.2E2,1.385E3,5.13E2,1.99E2,2.1E1,1.159E3,2.26E2,4.66E2,4.7E1,4E1,1.59E2,5E0,1.6E1,5.21E2,6.38E2,1.25E2,1.01E2,4.04E2,6.2E1,4.3E1,4E0,3.3E1,7E0,1.08E2,5.1E1,1E0,4E0,4.03E2,1.18E2,2.93E2,3.45E2,6.6E1,5.9E1,9.7E1,4E0,1.32E2,2.72E2,3.1E1,3.1E1,2E0,4.1E1,1E0,3E0,7E0,2.6E1,6E0,1E0,1.03E2,5E0,1.9E1,3.2E1,3.47E2,5.6E1,7.8E1,4E1,2.89E2,4E0,2.25E2,1.2E2,2.6E1,4E1,1.1E1,4.8E1,5E1,4.7E1,1.19E2,1.3E1,1.08E2,1.64E2,1.7E1,1.4E1,2E0,2.9E1,1E0,1E0,1E1,3.1E1,1E0,2.5E1,1E0,5E0,5.2E1,5.1E1,4E0,1E0,2E0,1.7E1,3.1E1,1E0],"tree_param":{"num_deleted":"0","num_feature":"10","num_nodes":"91","size_leaf_vector":"0"}},{"base_weights":[1.4775769E3,1.2204514E3,4.5761826E3,9.727157E2,2.0804817E3,4.2211875E3,1.1833762E4,8.374969E2,1.5774447E3,1.9214885E3,3.5300254E3,2.706379E3,4.755535E3,5.9977924E2,9.5549097E2,1.2061426E3,1.8619138E3,1.6430236E3,2.1916555E3,2.8646638E3,5.6513877E3,2.3857798E3,3.6524443E3,3.8514958E3,5.592004E3,1.4324065E3,5.6721906E2,8.7298914E2,1.1343252E3,9.811881E2,1.3518577E3,1.4736323E3,2.3123464E3,3.745011E3,1.6134933E3,1.8815591E3,2.5578945E3,1.6042272E3,3.323003E3,3.021254E3,7.151244E3,1.4060361E3,2.5400015E3,5.886378E3,2.1732664E3,4.9843247E3,3.0207578E3,1.3768707E3,5.7202476E3,4.0946442E2,1.65402E3,4.2369614E2,6.465464E2,7.5517786E2,1.0169452E3,1.2265051E3,7.2448303E2,7.920956E2,1.2943575E3,1.5024148E3,1.0768105E3,1.2668331E3,2.136196E3,2.0394604E3,3.3519656E3,7.245384E2,1.6823993E3,1.6948862E3,2.9632725E3,2.2620767E3,3.4505718E3,1.9930931E3,-9.711295E1,3.8768145E3,2.4461235E3,1.5615966E3,2.3633691E2,2.7363713E3,1.331188E3,4.0458072E2,2.7998245E3,2.228194E3,6.933026E3,4.0639496E2,3.4293198E3,6.4744136E3,4.6983564E3],"categories":[],"categories_nodes":[],"categories_segments":[],"categories_sizes":[],"default_left":[1,1,1,1,1,1,0,1,1,1,1,1,1,1,1,1,1,1,1,1,1,1,1,1,1,1,1,1,1,1,1,1,1,0,1,1,1,1,1,0,0,1,1,0,1,1,1,0,1,0,0,0,0,0,0,0,0,0,0,0,0,0,0,0,0,0,0,0,0,0,0,0,0,0,0,0,0,0,0,0,0,0,0,0,0,0,0],"id":2,"left_children":[1,3,5,7,9,11,-1,13,15,17,19,21,23,25,27,29,31,33,35,37,39,41,43,45,47,49,51,53,55,57,59,61,63,-1,65,67,69,71,73,-1,-1,75,77,-1,79,81,83,-1,85,-1,-1,-1,-1,-1,-1,-1,-1,-1,-1,-1,-1,-1,-1,-1,-1,-1,-1,-1,-1,-1,-1,-1,-1,-1,-1,-1,-1,-1,-1,-1,-1,-1,-1,-1,-1,-1,-1],"loss_changes":[1.6826875E9,4.1514803E8,3.6742502E8,1.2313395E8,9.393139E7,1.1340134E8,0E0,3.4376256E7,2.7012096E7,2.6190976E7,4.3092544E7,4.328288E6,6.466944E7,1.0465472E7,1.1270464E7,2.705424E6,2.370112E7,6.309888E6,1.767392E7,1.43112E7,1.3897664E7,1.717072E6,1.69468E7,3.95264E7,2.2936064E7,2.723204E6,4.302952E6,8.949888E6,8.896224E6,2.054084E6,1.36372E6,9.077312E6,1.3022624E7,0E0,1.0909376E7,1.7391424E7,1.5432704E7,7.471078E6,2.171856E6,0E0,0E0,9.04649E5,3.241232E6,0E0,6.624534E6,1.0808198E8,3.7058976E7,0E0,1.1968E7,0E0,0E0,0E0,0E0,0E0,0E0,0E0,0E0,0E0,0E0,0E0,0E0,0E0,0E0,0E0,0E0,0E0,0E0,0E0,0E0,0E0,0E0,0E0,0E0,0E0,0E0,0E0,0E0,0E0,0E0,0E0,0E0,0E0,0E0,0E0,0E0,0E0,0E0],"parents":[2147483647,0,0,1,1,2,2,3,3,4,4,5,5,7,7,8,8,9,9,10,10,11,11,12,12,13,13,14,14,15,15,16,16,17,17,18,18,19,19,20,20,21,21,22,22,23,23,24,24,25,25,26,26,27,27,28,28,29,29,30,30,31,31,32,32,34,34,35,35,36,36,37,37,38,38,41,41,42,42,44,44,45,45,46,46,48,48],"right_children":[2,4,6,8,10,12,-1,14,16,18,20,22,24,26,28,30,32,34,36,38,40,42,44,46,48,50,52,54,56,58,60,62,64,-1,66,68,70,72,74,-1,-1,76,78,-1,80,82,84,-1,86,-1,-1,-1,-1,-1,-1,-1,-1,-1,-1,-1,-1,-1,-1,-1,-1,-1,-1,-1,-1,-1,-1,-1,-1,-1,-1,-1,-1,-1,-1,-1,-1,-1,-1,-1,-1,-1,-1],"split_conditions":[1.697E3,8.68E2,4.744E3,6.339327E-1,9.929034E-1,8.05509E-1,3.5501287E3,3.335E2,1.6909857E0,8.05509E-1,1.8560035E0,8.05509E-1,2.245E3,1.25E1,5E-1,5E-1,5E-1,1.4928665E0,5E-1,1.165E3,5E-1,1.79E3,5E-1,1.8215E3,1.7234251E0,1.5652514E0,2.19E2,6.339327E-1,8.05509E-1,1.681895E0,8.05509E-1,7.95E2,1.763398E0,1.1235033E3,1.5995939E0,8.05509E-1,1.7968031E0,1.1125E3,1.4065E3,9.063762E2,2.1453733E3,1.7913893E0,9.1443825E-1,1.7659135E3,9.1443825E-1,1.8101656E0,1.881E3,4.1306125E2,5E-1,1.2283933E2,4.9620602E2,1.2710885E2,1.9396393E2,2.2655336E2,3.0508356E2,3.6795154E2,2.1734492E2,2.3762868E2,3.8830728E2,4.5072446E2,3.2304318E2,3.8004996E2,6.408588E2,6.1183813E2,1.0055897E3,2.1736153E2,5.0471982E2,5.0846588E2,8.8898175E2,6.7862305E2,1.0351716E3,5.97928E2,-2.9133886E1,1.1630444E3,7.338371E2,4.6847897E2,7.090108E1,8.2091144E2,3.993564E2,1.2137422E2,8.399474E2,6.6845825E2,2.079908E3,1.21918495E2,1.028796E3,1.9423241E3,1.409507E3],"split_indices":[0,0,0,3,2,2,0,0,1,2,1,3,0,0,5,6,5,1,5,0,6,0,5,0,1,1,0,2,4,1,4,0,1,0,1,3,1,0,0,0,0,1,4,0,3,1,0,0,8,0,0,0,0,0,0,0,0,0,0,0,0,0,0,0,0,0,0,0,0,0,0,0,0,0,0,0,0,0,0,0,0,0,0,0,0,0,0],"split_type":[0,0,0,0,0,0,0,0,0,0,0,0,0,0,0,0,0,0,0,0,0,0,0,0,0,0,0,0,0,0,0,0,0,0,0,0,0,0,0,0,0,0,0,0,0,0,0,0,0,0,0,0,0,0,0,0,0,0,0,0,0,0,0,0,0,0,0,0,0,0,0,0,0,0,0,0,0,0,0,0,0,0,0,0,0,0,0],"sum_hessian":[2.118E3,1.957E3,1.61E2,1.521E3,4.36E2,1.55E2,6E0,1.245E3,2.76E2,3.95E2,4.1E1,4.2E1,1.13E2,4.15E2,8.3E2,1.22E2,1.54E2,1.98E2,1.97E2,3.3E1,8E0,3.4E1,8E0,5.7E1,5.6E1,1.4E1,4.01E2,5.72E2,2.58E2,5.1E1,7.1E1,8.5E1,6.9E1,1E0,1.97E2,1.1E2,8.7E1,1E1,2.3E1,4E0,4E0,6E0,2.8E1,2E0,6E0,2.2E1,3.5E1,2E0,5.4E1,3E0,1.1E1,1.45E2,2.56E2,3.18E2,2.54E2,2.09E2,4.9E1,3.4E1,1.7E1,4.3E1,2.8E1,6.7E1,1.8E1,5.7E1,1.2E1,1.5E1,1.82E2,9.6E1,1.4E1,6.8E1,1.9E1,8E0,2E0,1.2E1,1.1E1,5E0,1E0,2.3E1,5E0,2E0,4E0,1E1,1.2E1,5E0,3E1,2.8E1,2.6E1],"tree_param":{"num_deleted":"0","num_feature":"10","num_nodes":"87","size_leaf_vector":"0"}},{"base_weights":[1.0495328E3,8.627783E2,3.3002476E3,6.8490564E2,1.4803058E3,3.080958E3,1.1191945E4,5.8789874E2,1.1187891E3,1.3575592E3,2.602385E3,2.642216E3,4.1012974E3,4.880803E2,7.4999506E2,2.5161633E3,1.0678777E3,1.2222072E3,1.6623518E3,2.0777844E3,4.2950547E3,2.322328E3,4.456386E3,1.811225E3,4.399528E3,4.3682266E2,7.2746405E2,7.726285E2,2.2604553E2,9.454395E2,1.5852479E3,1.2573535E3,3.201633E1,4.2078506E3,1.5372227E3,1.1746676E3,2.405139E3,7.0857407E3,3.0605015E3,2.5513618E3,4.4921835E2,1.7297417E3,4.9525547E3,1.980747E2,2.0470709E3,5.2513867E3,3.1816108E3,3.5937766E2,6.0058075E2,6.127943E2,8.8311475E2,7.601399E2,1.7395757E3,8.9608514E2,6.458976E1,5.640365E2,1.054299E3,7.948894E2,2.0440195E3,1.2135442E3,2.5404175E3,-2.4920406E2,4.4584283E2,1.6182393E3,7.2831484E3,2.3033223E3,1.2759954E3,1.4616016E3,-7.769039E1,2.8032349E3,1.7734397E3,3.2637617E3,8.188395E2,2.2547507E3,4.0891375E3,8.542305E1,2.2254834E3,1.9597465E3,5.198638E2,5.2547686E3,6.629944E2,9.699463E2,5.409077E3,1.3326586E3,4.1491113E3],"categories":[],"categories_nodes":[],"categories_segments":[],"categories_sizes":[],"default_left":[1,1,1,1,1,1,0,1,1,1,1,1,1,1,1,0,1,1,1,1,1,1,1,1,1,1,1,1,1,1,1,1,1,1,1,1,1,0,1,1,1,1,1,0,0,1,1,0,0,0,0,0,0,0,0,0,0,0,0,0,0,0,0,0,0,0,0,0,0,0,0,0,0,0,0,0,0,0,0,0,0,0,0,0,0],"id":3,"left_children":[1,3,5,7,9,11,-1,13,15,17,19,21,23,25,27,-1,29,31,33,35,37,39,41,43,45,47,49,51,53,55,57,59,61,63,65,67,69,-1,71,73,75,77,79,-1,-1,81,83,-1,-1,-1,-1,-1,-1,-1,-1,-1,-1,-1,-1,-1,-1,-1,-1,-1,-1,-1,-1,-1,-1,-1,-1,-1,-1,-1,-1,-1,-1,-1,-1,-1,-1,-1,-1,-1,-1],"loss_changes":[8.878344E8,2.140553E8,2.4586982E8,6.340269E7,5.6655744E7,6.03424E7,0E0,1.9794464E7,1.7019456E7,1.430496E7,2.8370752E7,5.580864E7,2.3448064E7,9.179392E6,5.43456E6,0E0,1.554128E7,1.1588704E7,3.1435008E7,7.226496E6,9.321344E6,4.132541E7,1.307936E7,2.257714E6,2.4791872E7,7.900808E6,1.868376E6,4.148E6,2.213939E6,8.539584E6,1.6504944E7,1.2093856E7,1.1584939E6,2.8033256E7,2.0075488E7,4.066337E6,1.06408E6,0E0,9.72632E5,3.091872E7,7.564255E6,9.431E4,1.3368864E7,0E0,0E0,9.606592E6,2.8459024E7,0E0,0E0,0E0,0E0,0E0,0E0,0E0,0E0,0E0,0E0,0E0,0E0,0E0,0E0,0E0,0E0,0E0,0E0,0E0,0E0,0E0,0E0,0E0,0E0,0E0,0E0,0E0,0E0,0E0,0E0,0E0,0E0,0E0,0E0,0E0,0E0,0E0,0E0],"parents":[2147483647,0,0,1,1,2,2,3,3,4,4,5,5,7,7,8,8,9,9,10,10,11,11,12,12,13,13,14,14,16,16,17,17,18,18,19,19,20,20,21,21,22,22,23,23,24,24,25,25,26,26,27,27,28,28,29,29,30,30,31,31,32,32,33,33,34,34,35,35,36,36,38,38,39,39,40,40,41,41,42,42,45,45,46,46],"right_children":[2,4,6,8,10,12,-1,14,16,18,20,22,24,26,28,-1,30,32,34,36,38,40,42,44,46,48,50,52,54,56,58,60,62,64,66,68,70,-1,72,74,76,78,80,-1,-1,82,84,-1,-1,-1,-1,-1,-1,-1,-1,-1,-1,-1,-1,-1,-1,-1,-1,-1,-1,-1,-1,-1,-1,-1,-1,-1,-1,-1,-1,-1,-1,-1,-1,-1,-1,-1,-1,-1,-1],"split_conditions":[1.697E3,8.68E2,4.9315E3,6.339327E-1,9.929034E-1,2.6235E3,3.3575837E3,4.995E2,5.5E1,1.7674531E0,1.8560035E0,9.1443825E-1,8.05509E-1,1.672245E0,8.445E2,7.54849E2,7.78E2,1.7647707E0,1.7694286E0,1.165E3,1.075E3,2.487E3,6.339327E-1,1.6393871E0,1.878125E0,5E-1,1.7086892E0,9.1443825E-1,6.339327E-1,4.06E2,1.7096798E0,1.7627213E0,1.766118E0,1.345E3,1.0775E3,1.1125E3,1.4065E3,2.1257224E3,1.053545E0,2.245E3,1.9325887E0,1.8863144E0,1.9284654E0,5.9422413E1,6.141213E2,1.7234251E0,1.907986E0,1.078133E2,1.8017422E2,1.838383E2,2.6493445E2,2.2804198E2,5.2187274E2,2.6882556E2,1.9376928E1,1.6921095E2,3.162897E2,2.3846683E2,6.132059E2,3.6406326E2,7.6212524E2,-7.476122E1,1.3375285E2,4.854718E2,2.1849446E3,6.909967E2,3.827986E2,4.384805E2,-2.3307117E1,8.409705E2,5.320319E2,9.7912854E2,2.4565186E2,6.7642523E2,1.2267413E3,2.5626917E1,6.67645E2,5.8792395E2,1.5595914E2,1.5764307E3,1.9889833E2,2.909839E2,1.6227233E3,3.9979758E2,1.2447334E3],"split_indices":[0,0,0,3,2,0,0,0,0,1,1,3,2,1,0,0,0,1,1,0,0,0,2,1,1,6,1,2,4,0,1,1,1,0,0,0,0,0,2,0,1,1,1,0,0,1,1,0,0,0,0,0,0,0,0,0,0,0,0,0,0,0,0,0,0,0,0,0,0,0,0,0,0,0,0,0,0,0,0,0,0,0,0,0,0],"split_type":[0,0,0,0,0,0,0,0,0,0,0,0,0,0,0,0,0,0,0,0,0,0,0,0,0,0,0,0,0,0,0,0,0,0,0,0,0,0,0,0,0,0,0,0,0,0,0,0,0,0,0,0,0,0,0,0,0,0,0,0,0,0,0,0,0,0,0,0,0,0,0,0,0,0,0,0,0,0,0,0,0,0,0,0,0],"sum_hessian":[2.118E3,1.957E3,1.61E2,1.521E3,4.36E2,1.58E2,3E0,1.245E3,2.76E2,3.95E2,4.1E1,1.13E2,4.5E1,7.73E2,4.72E2,8E0,2.68E2,2.77E2,1.18E2,3.3E1,8E0,9.8E1,1.5E1,6E0,3.9E1,6.39E2,1.34E2,4.52E2,2E1,2.19E2,4.9E1,2.69E2,8E0,4E0,1.14E2,1E1,2.3E1,1E0,7E0,8.7E1,1.1E1,3E0,1.2E1,1E0,5E0,2.1E1,1.8E1,4.36E2,2.03E2,8E1,5.4E1,4.48E2,4E0,3E0,1.7E1,5E1,1.69E2,1.9E1,3E1,2.62E2,7E0,5E0,3E0,3E0,1E0,2.7E1,8.7E1,8E0,2E0,1.2E1,1.1E1,6E0,1E0,7.5E1,1.2E1,1E1,1E0,2E0,1E0,1.1E1,1E0,1E0,2E1,7E0,1.1E1],"tree_param":{"num_deleted":"0","num_feature":"10","num_nodes":"85","size_leaf_vector":"0"}},{"base_weights":[7.4724493E2,5.7124054E2,2.0315623E3,5.1589185E2,1.503483E3,1.9180688E3,8.673758E3,3.537751E2,6.736136E2,1.3538987E3,3.38288E3,9.170905E2,2.1928745E3,3.445047E2,1.6328425E3,5.8189703E2,8.4562836E2,1.052051E3,1.7652766E3,5.247939E3,1.5872683E3,1.0358801E3,7.486792E1,2.0336875E3,3.8665728E3,2.8409622E2,5.2167444E2,1.8974802E3,7.357114E2,5.140709E2,1.043317E3,1.4928903E3,7.9306604E2,9.1560297E2,2.6993113E3,2.6665127E3,8.228956E2,2.1865442E2,1.8747582E3,7.4693506E2,1.778579E3,6.3269635E2,-3.863684E2,3.774339E3,1.888616E3,4.7375796E3,2.4033687E3,1.5345348E2,3.5228418E2,6.619686E2,3.542588E2,4.4838452E2,7.8021497E2,1.4663767E3,5.806255E2,1.640609E3,1.0468587E1,5.8875037E2,9.975521E2,3.5392688E2,1.2424965E3,1.0483815E3,3.8260503E3,2.1095005E3,3.91565E3,1.1868428E3,8.31261E1,5.853887E2,1.6637544E3,5.923228E2,2.2399902E3,-7.6533484E2,5.6474866E2,4.856973E3,1.2416907E2,1.8177894E3,5.225362E3,6.820394E2,3.954188E3],"categories":[],"categories_nodes":[],"categories_segments":[],"categories_sizes":[],"default_left":[1,1,1,1,1,1,0,1,1,1,1,1,1,1,1,1,1,1,1,0,1,1,1,1,1,1,1,0,0,1,1,1,1,1,1,1,1,0,0,1,1,0,1,1,1,0,1,0,0,0,0,0,0,0,0,0,0,0,0,0,0,0,0,0,0,0,0,0,0,0,0,0,0,0,0,0,0,0,0],"id":4,"left_children":[1,3,5,7,9,11,-1,13,15,17,19,21,23,25,27,29,31,33,35,-1,37,39,41,43,45,47,49,-1,-1,51,53,55,57,59,61,63,65,-1,-1,67,69,-1,71,73,75,-1,77,-1,-1,-1,-1,-1,-1,-1,-1,-1,-1,-1,-1,-1,-1,-1,-1,-1,-1,-1,-1,-1,-1,-1,-1,-1,-1,-1,-1,-1,-1,-1,-1],"loss_changes":[4.778299E8,9.545542E7,1.7559366E8,4.481485E7,2.4657264E7,6.730771E7,0E0,9.765344E6,1.358064E7,1.0311824E7,1.511256E7,5.525092E6,4.462349E7,9.120208E6,2.849E4,1.7772E7,9.294688E6,1.0789664E7,3.1778056E7,0E0,1.55739E6,9.186876E6,2.3027798E6,3.883021E7,9.005232E6,5.718492E6,4.909244E6,0E0,0E0,8.600976E6,1.36338E7,4.800416E6,1.1403472E7,9.842308E6,3.429508E6,5.655632E6,5.555321E6,0E0,0E0,4.506084E6,5.78878E6,0E0,2.234429E6,5.077029E7,3.0677504E7,0E0,1.8658852E7,0E0,0E0,0E0,0E0,0E0,0E0,0E0,0E0,0E0,0E0,0E0,0E0,0E0,0E0,0E0,0E0,0E0,0E0,0E0,0E0,0E0,0E0,0E0,0E0,0E0,0E0,0E0,0E0,0E0,0E0,0E0,0E0],"parents":[2147483647,0,0,1,1,2,2,3,3,4,4,5,5,7,7,8,8,9,9,10,10,11,11,12,12,13,13,14,14,15,15,16,16,17,17,18,18,20,20,21,21,22,22,23,23,24,24,25,25,26,26,29,29,30,30,31,31,32,32,33,33,34,34,35,35,36,36,39,39,40,40,42,42,43,43,44,44,46,46],"right_children":[2,4,6,8,10,12,-1,14,16,18,20,22,24,26,28,30,32,34,36,-1,38,40,42,44,46,48,50,-1,-1,52,54,56,58,60,62,64,66,-1,-1,68,70,-1,72,74,76,-1,78,-1,-1,-1,-1,-1,-1,-1,-1,-1,-1,-1,-1,-1,-1,-1,-1,-1,-1,-1,-1,-1,-1,-1,-1,-1,-1,-1,-1,-1,-1,-1,-1],"split_conditions":[1.3995E3,9.1443825E-1,4.9315E3,6.339327E-1,1.8567145E0,1.7331938E0,2.6021274E3,1.304E3,5E-1,9.1443825E-1,1.075E3,8.05509E-1,3.27E3,5E-1,1.365E3,1.008E3,6.339327E-1,1.325E3,1.017E3,1.5743817E3,9.929034E-1,1.7016219E0,1.7215E3,8.05509E-1,1.8680981E0,2.875E2,6.339327E-1,5.692441E2,2.2071344E2,5E-1,6.339327E-1,1.713304E0,6.339327E-1,5E-1,1.7884212E0,9.97E2,1.8354125E0,6.559633E1,5.624275E2,2.507E3,1.619E3,1.8980891E2,2.35E3,1.7830085E0,1.968492E0,1.4212739E3,1.9042051E0,4.6036045E1,1.0568526E2,1.9859059E2,1.0627764E2,1.3451537E2,2.340645E2,4.3991302E2,1.7418765E2,4.921827E2,3.1405761E0,1.7662512E2,2.9926566E2,1.0617807E2,3.7274896E2,3.1451447E2,1.1478152E3,6.3285016E2,1.1746951E3,3.5605286E2,2.493783E1,1.7561661E2,4.9912634E2,1.7769685E2,6.719971E2,-2.2960046E2,1.694246E2,1.457092E3,3.725072E1,5.4533685E2,1.5676086E3,2.0461183E2,1.1862565E3],"split_indices":[0,2,0,2,1,1,0,0,5,4,0,4,0,5,0,0,4,0,0,0,2,1,0,4,1,0,4,0,0,8,3,1,3,8,1,0,1,0,0,0,0,0,0,1,1,0,1,0,0,0,0,0,0,0,0,0,0,0,0,0,0,0,0,0,0,0,0,0,0,0,0,0,0,0,0,0,0,0,0],"split_type":[0,0,0,0,0,0,0,0,0,0,0,0,0,0,0,0,0,0,0,0,0,0,0,0,0,0,0,0,0,0,0,0,0,0,0,0,0,0,0,0,0,0,0,0,0,0,0,0,0,0,0,0,0,0,0,0,0,0,0,0,0,0,0,0,0,0,0,0,0,0,0,0,0,0,0,0,0,0,0],"sum_hessian":[2.118E3,1.864E3,2.54E2,1.761E3,1.03E2,2.51E2,3E0,8.7E2,8.91E2,9.7E1,6E0,5.5E1,1.96E2,8.65E2,5E0,5.84E2,3.07E2,5.8E1,3.9E1,2E0,4E0,4.8E1,7E0,1.81E2,1.5E1,6.47E2,2.18E2,3E0,2E0,5.11E2,7.3E1,2.1E1,2.86E2,5.5E1,3E0,1.9E1,2E1,1E0,3E0,3.6E1,1.2E1,3E0,4E0,1.2E1,1.69E2,8E0,7E0,2.23E2,4.24E2,1.17E2,1.01E2,4.12E2,9.9E1,3.7E1,3.6E1,1.9E1,2E0,1.45E2,1.41E2,2.1E1,3.4E1,2E0,1E0,1.5E1,4E0,1.3E1,7E0,3.2E1,4E0,4E0,8E0,3E0,1E0,9E0,3E0,1.67E2,2E0,4E0,3E0],"tree_param":{"num_deleted":"0","num_feature":"10","num_nodes":"79","size_leaf_vector":"0"}},{"base_weights":[5.3260815E2,4.3067188E2,1.7613647E3,3.614955E2,9.128663E2,1.625487E3,6.722162E3,2.4974655E2,5.1035687E2,7.752614E2,1.4913033E3,1.3778429E3,2.463488E3,9.2475525E2,2.354535E2,6.000684E2,3.6359747E2,1.2081293E3,6.72875E2,1.1218904E3,2.7090015E3,1.129952E3,2.196252E3,3.5168242E3,1.761016E3,1.6380927E2,1.049404E3,2.0009224E2,4.0019543E2,5.288748E2,1.0770302E3,2.3387044E2,5.6313794E2,9.314846E2,4.0329407E3,5.0396185E2,9.8963666E2,1.2636052E3,4.5022314E2,1.3704945E3,3.7734094E3,1.3272622E3,-2.6224988E2,1.37945E3,2.914522E3,3.8343494E3,-1.4673828E2,2.0438427E3,3.340717E2,1.953244E2,3.4631927E1,1.5574714E3,6.3068805E2,5.883063E1,2.2441835E2,9.647296E2,3.6241083E2,6.6504266E2,4.5044E2,4.579014E2,1.4160519E3,1.40136E2,6.556904E2,2.701606E2,6.9065204E2,4.9827923E1,1.3335011E3,5.4621304E3,5.8728076E2,-2.1234766E1,5.8158276E2,-3.617722E1,1.2702263E3,7.97568E2,1.6764713E3,-7.378491E2,7.253548E2,1.314276E3,4.9747397E3,1.0883961E3,2.856949E3,-1.5992949E3,2.9879315E2,1.9872128E3,-1.7140059E3,-4.7768213E2,3.2122056E3,4.5792837E3,2.3262012E3,1.0719763E3,2.4099365E3,-2.0531104E2,1.2458013E3],"categories":[],"categories_nodes":[],"categories_segments":[],"categories_sizes":[],"default_left":[1,1,1,1,1,1,0,1,1,1,1,1,1,1,1,1,1,1,1,1,1,1,1,1,1,1,1,1,1,1,1,1,1,1,1,1,1,1,1,0,1,1,1,1,1,1,0,1,1,0,0,0,0,0,0,0,0,0,0,0,0,0,0,0,0,0,0,0,0,0,0,0,0,0,0,0,0,0,0,0,0,0,0,0,0,0,0,0,0,0,0,0,0],"id":5,"left_children":[1,3,5,7,9,11,-1,13,15,17,19,21,23,25,27,29,31,33,35,37,39,41,43,45,47,49,51,53,55,57,59,61,63,65,67,69,71,73,75,-1,77,79,81,83,85,87,-1,89,91,-1,-1,-1,-1,-1,-1,-1,-1,-1,-1,-1,-1,-1,-1,-1,-1,-1,-1,-1,-1,-1,-1,-1,-1,-1,-1,-1,-1,-1,-1,-1,-1,-1,-1,-1,-1,-1,-1,-1,-1,-1,-1,-1,-1],"loss_changes":[2.6465638E8,6.498195E7,9.82712E7,2.8385104E7,1.8344816E7,2.9602336E7,0E0,9.246888E6,9.445664E6,8.05104E6,1.7653152E7,2.2877856E7,1.9704704E7,1.725118E6,5.52404E6,1.4846688E7,7.142208E6,2.5157728E7,8.276112E6,2.952952E6,9.075728E6,2.7268248E7,1.2406736E7,1.56852E7,8.599496E6,9.519711E3,2.634234E6,2.715258E6,3.25526E6,3.940512E6,1.152568E7,6.708833E6,3.922872E6,1.233897E7,1.15657E7,4.45587E6,1.6164592E7,4.435228E6,3.1502125E6,0E0,8.232984E6,2.8314048E7,1.0229677E7,3.1607408E7,1.5671672E7,2.829328E6,0E0,4.176696E6,2.7146325E6,0E0,0E0,0E0,0E0,0E0,0E0,0E0,0E0,0E0,0E0,0E0,0E0,0E0,0E0,0E0,0E0,0E0,0E0,0E0,0E0,0E0,0E0,0E0,0E0,0E0,0E0,0E0,0E0,0E0,0E0,0E0,0E0,0E0,0E0,0E0,0E0,0E0,0E0,0E0,0E0,0E0,0E0,0E0,0E0],"parents":[2147483647,0,0,1,1,2,2,3,3,4,4,5,5,7,7,8,8,9,9,10,10,11,11,12,12,13,13,14,14,15,15,16,16,17,17,18,18,19,19,20,20,21,21,22,22,23,23,24,24,25,25,26,26,27,27,28,28,29,29,30,30,31,31,32,32,33,33,34,34,35,35,36,36,37,37,38,38,40,40,41,41,42,42,43,43,44,44,45,45,47,47,48,48],"right_children":[2,4,6,8,10,12,-1,14,16,18,20,22,24,26,28,30,32,34,36,38,40,42,44,46,48,50,52,54,56,58,60,62,64,66,68,70,72,74,76,-1,78,80,82,84,86,88,-1,90,92,-1,-1,-1,-1,-1,-1,-1,-1,-1,-1,-1,-1,-1,-1,-1,-1,-1,-1,-1,-1,-1,-1,-1,-1,-1,-1,-1,-1,-1,-1,-1,-1,-1,-1,-1,-1,-1,-1,-1,-1,-1,-1,-1,-1],"split_conditions":[1.697E3,1.7578415E0,4.9315E3,5.605E2,9.929034E-1,9.1443825E-1,2.0166487E3,1.25E1,8.05509E-1,1.7694286E0,1.8560035E0,2.607E3,5E-1,1.5652514E0,1.6795374E0,8.05509E-1,5E-1,1.375E3,5E-1,1.053545E0,5E-1,2.424E3,5E-1,1.9462878E0,3.75E3,6.339327E-1,6.339327E-1,2.055E2,1.681895E0,5E-1,7.95E2,1.14E3,6.339327E-1,6.339327E-1,1.527E3,1.7745807E0,8.05509E-1,9.1443825E-1,1.7945673E0,4.1114838E2,1.8598242E0,2.245E3,5E-1,8.05509E-1,5E-1,3E3,-4.4021484E1,1.8549416E0,4.744E3,5.8597324E1,1.0389579E1,4.6724146E2,1.8920642E2,1.764919E1,6.732551E1,2.8941888E2,1.0872325E2,1.995128E2,1.35132E2,1.3737042E2,4.2481558E2,4.2040802E1,1.9670714E2,8.104819E1,2.0719562E2,1.4948378E1,4.0005035E2,1.6386392E3,1.7618423E2,-6.37043E0,1.7447484E2,-1.0853167E1,3.810679E2,2.392704E2,5.029414E2,-2.2135475E2,2.1760645E2,3.942828E2,1.492422E3,3.2651886E2,8.570847E2,-4.7978848E2,8.963795E1,5.961639E2,-5.142018E2,-1.4330464E2,9.636617E2,1.3737852E3,6.9786035E2,3.215929E2,7.2298096E2,-6.159331E1,3.737404E2],"split_indices":[0,1,0,0,2,3,0,0,4,1,1,0,8,1,1,2,8,0,5,2,6,0,5,1,0,4,4,0,1,6,0,0,3,3,0,1,2,4,1,0,1,0,6,3,6,0,0,1,0,0,0,0,0,0,0,0,0,0,0,0,0,0,0,0,0,0,0,0,0,0,0,0,0,0,0,0,0,0,0,0,0,0,0,0,0,0,0,0,0,0,0,0,0],"split_type":[0,0,0,0,0,0,0,0,0,0,0,0,0,0,0,0,0,0,0,0,0,0,0,0,0,0,0,0,0,0,0,0,0,0,0,0,0,0,0,0,0,0,0,0,0,0,0,0,0,0,0,0,0,0,0,0,0,0,0,0,0,0,0,0,0,0,0,0,0,0,0,0,0,0,0,0,0,0,0,0,0,0,0,0,0,0,0,0,0,0,0,0,0],"sum_hessian":[2.118E3,1.957E3,1.61E2,1.713E3,2.44E2,1.58E2,3E0,9.8E2,7.33E2,1.99E2,4.5E1,1.24E2,3.4E1,1.9E1,9.61E2,4.53E2,2.8E2,3.6E1,1.63E2,3.6E1,9E0,9.7E1,2.7E1,1.2E1,2.2E1,3E0,1.6E1,7.93E2,1.68E2,3.96E2,5.7E1,1.71E2,1.09E2,3.4E1,2E0,1.08E2,5.5E1,2.9E1,7E0,5E0,4E0,8.5E1,1.2E1,1.4E1,1.3E1,1.1E1,1E0,1.8E1,4E0,2E0,1E0,6E0,1E1,1.17E2,6.76E2,9E0,1.59E2,1.42E2,2.54E2,2.1E1,3.6E1,1.41E2,3E1,3.4E1,7.5E1,1.1E1,2.3E1,1E0,1E0,1.4E1,9.4E1,1.2E1,4.3E1,1.5E1,1.4E1,1E0,6E0,2E0,2E0,7.5E1,1E1,3E0,9E0,1.2E1,2E0,1E0,1.2E1,6E0,5E0,6E0,1.2E1,3E0,1E0],"tree_param":{"num_deleted":"0","num_feature":"10","num_nodes":"93","size_leaf_vector":"0"}},{"base_weights":[3.801563E2,3.0303525E2,1.3419937E3,2.8339624E2,1.5589968E3,1.2320388E3,4.438213E3,1.9125824E2,4.1743817E2,6.0056366E2,2.9465996E3,2.6544138E3,1.1247069E3,5.018301E3,1.0589312E3,1.3928578E2,3.0236826E2,3.2207983E2,6.2097955E2,1.313251E3,-5.435376E2,3.4762715E3,-1.4398958E3,3.9058062E3,-1.9912598E2,8.285893E2,1.4819072E3,1.617152E2,-2.5088661E1,3.4682266E2,6.10867E1,2.4500027E2,5.075723E2,5.5533856E2,1.4879803E3,3.5299454E2,2.587011E3,2.8370612E2,-1.4417079E3,4.4144775E1,3.8150696E3,1.4050314E3,5.4301294E3,-2.3910481E2,-3.9594727E1,1.00722394E3,-5.4043896E2,2.457533E3,1.0767334E3,1.2166706E2,2.7977936E2,1.1431895E2,-1.0113334E2,3.0742053E2,5.8250037E2,-7.75921E1,3.0912042E2,2.8179712E2,-9.55238E1,6.6006744E2,-2.331614E1,8.7316724E2,3.9992776E2,4.6951514E3,9.940852E2,-2.2440186E1,1.4905188E3,3.6316252E3,6.800596E2,-3.4881512E2,1.4068955E3,-1.8309261E3,-1.3702661E2,4.3687627E3,1.0668652E3,7.054718E2,2.8075398E3,-2.184461E3,1.4362418E2,1.4574117E3,4.2148735E3,-4.5010052E2,1.7381205E3],"categories":[],"categories_nodes":[],"categories_segments":[],"categories_sizes":[],"default_left":[1,1,1,1,1,1,1,1,1,1,1,1,1,0,0,1,1,1,1,1,1,1,0,1,1,1,1,1,1,1,1,1,1,1,1,1,1,1,1,0,1,0,0,0,0,1,1,1,1,0,0,0,0,0,0,0,0,0,0,0,0,0,0,0,0,0,0,0,0,0,0,0,0,0,0,0,0,0,0,0,0,0,0],"id":6,"left_children":[1,3,5,7,9,11,13,15,17,19,21,23,25,-1,-1,27,29,31,33,35,37,39,-1,41,43,45,47,49,51,53,55,57,59,61,63,65,67,69,71,-1,73,-1,-1,-1,-1,75,77,79,81,-1,-1,-1,-1,-1,-1,-1,-1,-1,-1,-1,-1,-1,-1,-1,-1,-1,-1,-1,-1,-1,-1,-1,-1,-1,-1,-1,-1,-1,-1,-1,-1,-1,-1],"loss_changes":[1.5677632E8,4.797728E7,4.7981696E7,2.380576E7,3.812811E7,2.037248E7,4.48736E6,6.587192E6,1.5075168E7,1.6206144E7,3.2886312E7,3.648673E7,1.4003472E7,0E0,0E0,2.894524E6,3.893816E6,7.5678E6,1.3401368E7,1.3764432E7,6.353067E6,1.2622376E7,0E0,1.9054424E7,1.6044203E4,2.0353368E7,2.265296E7,3.228452E6,1.0186761E6,2.681076E6,2.0190122E6,4.81346E6,1.2725784E7,1.1208992E7,2.2260724E7,3.4499765E6,7.490424E6,4.0429522E6,1.7803375E6,0E0,1.0555728E7,0E0,0E0,0E0,0E0,3.7133296E7,1.155989E7,2.5493152E7,4.8244256E7,0E0,0E0,0E0,0E0,0E0,0E0,0E0,0E0,0E0,0E0,0E0,0E0,0E0,0E0,0E0,0E0,0E0,0E0,0E0,0E0,0E0,0E0,0E0,0E0,0E0,0E0,0E0,0E0,0E0,0E0,0E0,0E0,0E0,0E0],"parents":[2147483647,0,0,1,1,2,2,3,3,4,4,5,5,6,6,7,7,8,8,9,9,10,10,11,11,12,12,15,15,16,16,17,17,18,18,19,19,20,20,21,21,23,23,24,24,25,25,26,26,27,27,28,28,29,29,30,30,31,31,32,32,33,33,34,34,35,35,36,36,37,37,38,38,40,40,45,45,46,46,47,47,48,48],"right_children":[2,4,6,8,10,12,14,16,18,20,22,24,26,-1,-1,28,30,32,34,36,38,40,-1,42,44,46,48,50,52,54,56,58,60,62,64,66,68,70,72,-1,74,-1,-1,-1,-1,76,78,80,82,-1,-1,-1,-1,-1,-1,-1,-1,-1,-1,-1,-1,-1,-1,-1,-1,-1,-1,-1,-1,-1,-1,-1,-1,-1,-1,-1,-1,-1,-1,-1,-1,-1,-1],"split_conditions":[8.05509E-1,2.243E3,4.744E3,1.6771438E0,1.8481879E0,8.05509E-1,1.9484062E0,5E-1,5E-1,9.1443825E-1,5E-1,1.7830085E0,1.8498574E0,1.5054902E3,3.1767935E2,8.05509E-1,8.05509E-1,9.945E2,1.80726E0,1.7273629E0,1.813165E0,8.05509E-1,-4.3196875E2,1.74769E0,3.124E3,2.2005E3,1.832E3,6.339327E-1,3.375E2,1.6565688E0,1.6619674E0,8.935E2,9.1443825E-1,8.05509E-1,1.8162868E0,4.125E3,2.9625E3,2.6355E3,2.9585E3,1.3243433E1,1.053545E0,4.2150943E2,1.629039E3,-7.1731445E1,-1.1878418E1,1.765E3,5E-1,1.697E3,2.27E3,3.650012E1,8.393381E1,3.4295685E1,-3.0340002E1,9.2226166E1,1.7475012E2,-2.3277632E1,9.273613E1,8.453914E1,-2.8657143E1,1.9802025E2,-6.994842E0,2.619502E2,1.1997833E2,1.4085454E3,2.982256E2,-6.732056E0,4.4715567E2,1.0894877E3,2.0401788E2,-1.0464454E2,4.2206866E2,-5.492779E2,-4.1107986E1,1.3106289E3,3.2005957E2,2.1164156E2,8.4226196E2,-6.553383E2,4.3087254E1,4.3722354E2,1.2644622E3,-1.3503017E2,5.2143616E2],"split_indices":[3,0,0,1,1,4,1,5,5,4,8,1,1,0,0,4,4,0,1,1,1,2,0,1,0,0,0,2,0,1,1,0,2,4,1,0,0,0,0,0,2,0,0,0,0,0,5,0,0,0,0,0,0,0,0,0,0,0,0,0,0,0,0,0,0,0,0,0,0,0,0,0,0,0,0,0,0,0,0,0,0,0,0],"split_type":[0,0,0,0,0,0,0,0,0,0,0,0,0,0,0,0,0,0,0,0,0,0,0,0,0,0,0,0,0,0,0,0,0,0,0,0,0,0,0,0,0,0,0,0,0,0,0,0,0,0,0,0,0,0,0,0,0,0,0,0,0,0,0,0,0,0,0,0,0,0,0,0,0,0,0,0,0,0,0,0,0,0,0],"sum_hessian":[2.118E3,1.962E3,1.56E2,1.933E3,2.9E1,1.52E2,4E0,1.147E3,7.86E2,1.8E1,1.1E1,9E0,1.43E2,3E0,1E0,7.83E2,3.64E2,5.37E2,2.49E2,1.1E1,7E0,1E1,1E0,6E0,3E0,8E1,6.3E1,6.89E2,9.4E1,3.07E2,5.7E1,3.81E2,1.56E2,2.33E2,1.6E1,7E0,4E0,4E0,3E0,1E0,9E0,3E0,3E0,2E0,1E0,7.1E1,9E0,1.7E1,4.6E1,5.16E2,1.73E2,3.3E1,6.1E1,2.65E2,4.2E1,3.7E1,2E1,3.44E2,3.7E1,1.21E2,3.5E1,7.5E1,1.58E2,1E0,1.5E1,6E0,1E0,2E0,2E0,3E0,1E0,2E0,1E0,7E0,2E0,6.2E1,9E0,2E0,7E0,1.2E1,5E0,1.4E1,3.2E1],"tree_param":{"num_deleted":"0","num_feature":"10","num_nodes":"83","size_leaf_vector":"0"}},{"base_weights":[2.7167297E2,2.149109E2,9.796493E2,1.998233E2,1.1803954E3,8.9181714E2,3.471383E3,1.1049283E2,2.7698718E2,4.8996006E3,8.8319525E2,2.0547834E3,8.048624E2,3.889183E3,9.000913E2,9.976775E1,3.8859656E2,2.1282144E2,3.8875522E2,1.5860398E3,1.6858904E1,3.0269998E3,-1.6029053E2,7.347025E2,1.9057432E3,1.5430022E2,5.062535E1,5.5188074E2,-4.381625E2,1.51705E2,3.0891696E2,3.5294022E2,1.2921768E3,3.0214908E2,2.5510493E3,-4.0318726E2,2.7387295E3,1.0888993E3,4.20835E3,-1.9128386E2,-3.3655273E1,1.4943062E3,5.9208386E2,-1.5446191E2,2.2221243E3,8.267812E1,3.58927E2,-7.586454E1,7.9731544E1,1.6605699E2,9.842884E2,-1.1130822E3,1.7756787E2,1.7560413E2,-2.5390236E2,3.3997876E2,-4.8920044E2,3.9027573E2,4.0765877E1,-6.599211E2,2.139008E3,-1.6669888E1,1.2669409E3,1.5847314E2,3.2120037E3,-7.0677856E2,8.4437665E2,6.359467E2,3.5342139E3,9.12817E1,8.1353564E2,2.7481018E3,1.1406155E3],"categories":[],"categories_nodes":[],"categories_segments":[],"categories_sizes":[],"default_left":[1,1,1,1,1,1,1,1,1,0,1,1,1,0,0,1,1,1,1,1,1,1,1,1,1,1,1,1,1,1,1,1,1,1,1,1,0,0,0,0,0,1,1,0,1,0,0,0,0,0,0,0,0,0,0,0,0,0,0,0,0,0,0,0,0,0,0,0,0,0,0,0,0],"id":7,"left_children":[1,3,5,7,9,11,13,15,17,-1,19,21,23,-1,-1,25,27,29,31,33,35,37,39,41,43,45,47,49,51,53,55,57,59,61,63,65,-1,-1,-1,-1,-1,67,69,-1,71,-1,-1,-1,-1,-1,-1,-1,-1,-1,-1,-1,-1,-1,-1,-1,-1,-1,-1,-1,-1,-1,-1,-1,-1,-1,-1,-1,-1],"loss_changes":[8.494403E7,2.8358872E7,3.1264288E7,1.3300624E7,2.8833148E7,1.3818368E7,1.870808E6,2.63968E6,7.354296E6,0E0,1.7631358E7,2.2020504E7,9.722072E6,0E0,0E0,2.312944E6,4.696704E6,3.8352E6,1.1742164E7,1.9052672E7,1.7110578E7,1.144456E7,9.26168E3,1.3956952E7,5.557712E6,5.979203E6,1.688558E6,4.507881E6,2.691059E6,3.980212E6,6.512798E6,4.226576E6,2.4554942E7,2.4818712E6,1.3723432E7,5.5205315E6,0E0,0E0,0E0,0E0,0E0,3.4522876E7,1.2901456E7,0E0,8.47416E5,0E0,0E0,0E0,0E0,0E0,0E0,0E0,0E0,0E0,0E0,0E0,0E0,0E0,0E0,0E0,0E0,0E0,0E0,0E0,0E0,0E0,0E0,0E0,0E0,0E0,0E0,0E0,0E0],"parents":[2147483647,0,0,1,1,2,2,3,3,4,4,5,5,6,6,7,7,8,8,10,10,11,11,12,12,15,15,16,16,17,17,18,18,19,19,20,20,21,21,22,22,23,23,24,24,25,25,26,26,27,27,28,28,29,29,30,30,31,31,32,32,33,33,34,34,35,35,41,41,42,42,44,44],"right_children":[2,4,6,8,10,12,14,16,18,-1,20,22,24,-1,-1,26,28,30,32,34,36,38,40,42,44,46,48,50,52,54,56,58,60,62,64,66,-1,-1,-1,-1,-1,68,70,-1,72,-1,-1,-1,-1,-1,-1,-1,-1,-1,-1,-1,-1,-1,-1,-1,-1,-1,-1,-1,-1,-1,-1,-1,-1,-1,-1,-1,-1],"split_conditions":[8.05509E-1,2.243E3,4.744E3,6.339327E-1,2.275E3,8.05509E-1,1.9484062E0,1.3185E3,5E-1,1.4698802E3,9.1443825E-1,1.7830085E0,9.929034E-1,1.166755E3,2.700274E2,6.339327E-1,9.1443825E-1,1.7227921E0,1.80726E0,1.7273629E0,1.9570448E0,1.74769E0,3.124E3,1.017E3,1.4E3,5E-1,1.597674E0,1.6806543E0,1.506E3,1.172E3,9.929034E-1,1.281E3,5E-1,4.125E3,8.05509E-1,3.13E3,8.216189E2,3.266698E2,1.2625051E3,-5.738516E1,-1.0096582E1,9.285E2,9.1443825E-1,-4.6338577E1,9.929034E-1,2.4803438E1,1.0767811E2,-2.2759363E1,2.3919464E1,4.98171E1,2.9528653E2,-3.3392465E2,5.3270363E1,5.268124E1,-7.617071E1,1.0199363E2,-1.4676013E2,1.17082726E2,1.2229764E1,-1.9797633E2,6.4170245E2,-5.0009665E0,3.8008228E2,4.7541946E1,9.6360114E2,-2.1203358E2,2.53313E2,1.9078403E2,1.0602642E3,2.7384512E1,2.440607E2,8.244306E2,3.4218466E2],"split_indices":[3,0,0,2,0,4,1,0,5,0,4,1,3,0,0,4,4,1,1,1,1,1,0,0,0,8,1,1,0,0,2,0,8,0,2,0,0,0,0,0,0,0,4,0,2,0,0,0,0,0,0,0,0,0,0,0,0,0,0,0,0,0,0,0,0,0,0,0,0,0,0,0,0],"split_type":[0,0,0,0,0,0,0,0,0,0,0,0,0,0,0,0,0,0,0,0,0,0,0,0,0,0,0,0,0,0,0,0,0,0,0,0,0,0,0,0,0,0,0,0,0,0,0,0,0,0,0,0,0,0,0,0,0,0,0,0,0,0,0,0,0,0,0,0,0,0,0,0,0],"sum_hessian":[2.118E3,1.962E3,1.56E2,1.933E3,2.9E1,1.52E2,4E0,8.97E2,1.036E3,1E0,2.8E1,9E0,1.43E2,3E0,1E0,8.65E2,3.2E1,6.6E2,3.76E2,1.5E1,1.3E1,6E0,3E0,1.36E2,7E0,4.09E2,4.56E2,2.7E1,5E0,4.05E2,2.55E2,3.63E2,1.3E1,7E0,8E0,1.2E1,1E0,3E0,3E0,2E0,1E0,2E1,1.16E2,1E0,6E0,3.04E2,1.05E2,8.5E1,3.71E2,1.5E1,1.2E1,2E0,3E0,3.83E2,2.2E1,2.46E2,9E0,3.24E2,3.9E1,4E0,9E0,6E0,1E0,2E0,6E0,1E1,2E0,1.5E1,5E0,3.6E1,8E1,3E0,3E0],"tree_param":{"num_deleted":"0","num_feature":"10","num_nodes":"73","size_leaf_vector":"0"}},{"base_weights":[1.949012E2,1.5249965E2,7.710954E2,1.3676518E2,7.205164E2,6.9428766E2,3.304995E3,1.404546E2,-1.3065906E3,4.713953E2,1.5323973E3,1.5145349E3,5.5526953E2,7.888185E1,2.0778932E2,-1.5449707E2,-1.5559897E3,1.399097E3,3.0821674E2,2.855329E3,9.82278E2,3.3467886E2,3.6578848E3,4.9676263E2,2.7299583E3,6.0749176E2,6.697107E1,2.0352591E2,2.0544048E3,5.4292755E2,1.6914498E3,-2.4502734E2,5.517057E2,5.4226025E2,3.7407334E3,4.3409326E2,1.4436442E3,6.539258E2,-1.0538685E3,-8.053415E2,5.717015E2,3.834765E2,1.1409531E3,7.5167475E0,9.0996864E1,1.2304513E3,1.9879869E2,7.3965924E2,-1.7715204E3,7.671111E2,-1.4255336E2,5.7006036E2,-1.2287109E2,8.847615E2,-9.426333E2,-1.3958066E3,-2.8999414E2,7.4706995E2,-2.7539026E1],"categories":[],"categories_nodes":[],"categories_segments":[],"categories_sizes":[],"default_left":[1,1,1,1,1,1,0,1,1,1,1,1,1,1,1,0,0,1,1,1,1,1,0,1,0,1,1,1,0,0,0,1,1,0,0,1,0,1,0,1,1,0,0,0,0,0,0,0,0,0,0,0,0,0,0,0,0,0,0],"id":8,"left_children":[1,3,5,7,9,11,-1,13,15,17,19,21,23,25,27,-1,-1,29,31,33,35,37,-1,39,-1,41,43,45,-1,-1,-1,47,49,-1,-1,51,-1,53,-1,55,57,-1,-1,-1,-1,-1,-1,-1,-1,-1,-1,-1,-1,-1,-1,-1,-1,-1,-1],"loss_changes":[5.165281E7,1.7552908E7,2.592572E7,1.0423796E7,9.997238E6,1.5351184E7,0E0,7.939752E6,1.19626E6,5.926778E6,5.928514E6,4.9352664E7,1.4293684E7,6.280659E6,6.793432E6,0E0,0E0,5.83486E5,5.119409E6,4.115552E6,1.902463E6,6.895205E6,0E0,1.2267372E7,0E0,2.191548E6,1.40347E6,4.19726E6,0E0,0E0,0E0,1.934773E7,3.9975795E6,0E0,0E0,5.244169E5,0E0,5.256519E6,0E0,1.725287E6,1.210568E7,0E0,0E0,0E0,0E0,0E0,0E0,0E0,0E0,0E0,0E0,0E0,0E0,0E0,0E0,0E0,0E0,0E0,0E0],"parents":[2147483647,0,0,1,1,2,2,3,3,4,4,5,5,7,7,8,8,9,9,10,10,11,11,12,12,13,13,14,14,17,17,18,18,19,19,20,20,21,21,23,23,25,25,26,26,27,27,31,31,32,32,35,35,37,37,39,39,40,40],"right_children":[2,4,6,8,10,12,-1,14,16,18,20,22,24,26,28,-1,-1,30,32,34,36,38,-1,40,-1,42,44,46,-1,-1,-1,48,50,-1,-1,52,-1,54,-1,56,58,-1,-1,-1,-1,-1,-1,-1,-1,-1,-1,-1,-1,-1,-1,-1,-1,-1,-1],"split_conditions":[1.765E3,9.929034E-1,4.9315E3,1.729E3,1.8553E0,1.8255E3,9.914986E2,5.605E2,1.7253325E0,1.7751064E0,1.075E3,8.05509E-1,1.9664931E0,1.25E1,1.71E3,-4.634912E1,-4.6679694E2,1.0025E3,8.05509E-1,8.75E2,1.5075E3,9.1443825E-1,1.0973655E3,1.881E3,8.189875E2,1.7026663E0,2.775E2,1.4928665E0,6.163215E2,1.6287827E2,5.0743497E2,1.43E3,1.053545E0,1.6267809E2,1.1222201E3,1.053545E0,4.3309326E2,1.0944775E0,-3.1616058E2,1.7793646E0,1.8890463E0,1.1504295E2,3.4228595E2,2.2550244E0,2.729906E1,3.691354E2,5.963961E1,2.2189778E2,-5.314561E2,2.3013333E2,-4.276601E1,1.7101811E2,-3.686133E1,2.6542847E2,-2.8279E2,-4.18742E2,-8.6998245E1,2.2412099E2,-8.261708E0],"split_indices":[0,2,0,0,1,0,0,0,1,1,0,3,1,0,0,0,0,0,3,0,0,4,0,0,0,1,0,1,0,0,0,0,2,0,0,2,0,2,0,1,1,0,0,0,0,0,0,0,0,0,0,0,0,0,0,0,0,0,0],"split_type":[0,0,0,0,0,0,0,0,0,0,0,0,0,0,0,0,0,0,0,0,0,0,0,0,0,0,0,0,0,0,0,0,0,0,0,0,0,0,0,0,0,0,0,0,0,0,0,0,0,0,0,0,0,0,0,0,0,0,0],"sum_hessian":[2.118E3,1.974E3,1.44E2,1.922E3,5.2E1,1.41E2,3E0,1.918E3,4E0,4.1E1,1.1E1,1.9E1,1.22E2,1.003E3,9.15E2,1E0,3E0,5E0,3.6E1,2E0,9E0,1.3E1,6E0,1.2E2,2E0,2.1E1,9.82E2,9.14E2,1E0,2E0,3E0,1.1E1,2.5E1,1E0,1E0,5E0,4E0,1.1E1,2E0,6E0,1.14E2,1.6E1,5E0,2.83E2,6.99E2,3E0,9.11E2,7E0,4E0,1.9E1,6E0,4E0,1E0,1E1,1E0,2E0,4E0,8.8E1,2.6E1],"tree_param":{"num_deleted":"0","num_feature":"10","num_nodes":"59","size_leaf_vector":"0"}},{"base_weights":[1.3912244E2,1.2568113E2,1.4146116E3,8.255484E1,3.3719257E2,8.5577155E2,2.4898728E3,9.135933E1,-1.7495755E2,3.1844116E2,1.5861014E3,1.3428773E3,-4.8443652E2,2.9216406E3,9.4030206E2,6.736466E1,2.3298613E2,-3.659514E2,2.062283E2,3.4219504E2,-5.2578503E2,2.2337183E3,-5.0218286E2,2.0323372E2,2.127875E3,1.3327393E2,-6.721826E2,3.3781982E2,6.3713882E1,2.6334092E3,2.1227077E2,5.5252495E1,-7.688577E2,-1.02982956E2,5.2573785E2,2.8737848E2,8.6424976E2,-8.7801733E2,1.3221528E3,-6.6922437E2,5.1157022E2,7.871716E2,2.5067222E3,6.7200867E2,3.368168E1,1.5832497E1,8.256077E1,8.515901E1,5.449052E2,-2.5095827E2,2.394397E2,-1.333771E3,-6.3199115E2,-6.736299E2,1.9521338E2,9.7028424E2,-1.1286543E2,4.2940024E2,6.973762E1,1.198772E2,1.3048795E3,-1.10069824E2,-1.2436461E3,1.5704309E2,9.6483936E2,1.3214248E3,-1.4066748E2],"categories":[],"categories_nodes":[],"categories_segments":[],"categories_sizes":[],"default_left":[1,1,1,1,1,1,1,1,1,1,1,1,1,0,0,1,1,1,1,1,1,0,0,1,1,0,0,1,1,0,1,1,1,1,1,1,1,1,0,0,1,1,0,0,0,0,0,0,0,0,0,0,0,0,0,0,0,0,0,0,0,0,0,0,0,0,0],"id":9,"left_children":[1,3,5,7,9,11,13,15,17,19,21,23,25,-1,-1,27,29,31,33,35,37,-1,-1,39,41,-1,-1,43,45,-1,47,49,51,53,55,57,59,61,-1,-1,63,65,-1,-1,-1,-1,-1,-1,-1,-1,-1,-1,-1,-1,-1,-1,-1,-1,-1,-1,-1,-1,-1,-1,-1,-1,-1],"loss_changes":[3.615088E7,1.9109494E7,1.1089016E7,3.970093E6,7.808584E6,1.1095707E7,1.93616E6,5.717215E6,4.29811E6,7.218748E6,7.883775E6,1.0302956E7,6.69448E5,0E0,0E0,1.4042415E6,1.1574058E7,6.6610035E6,2.0300608E6,9.538732E6,7.669908E6,0E0,0E0,1.9564194E6,1.582232E6,0E0,0E0,1.9085175E6,1.285537E6,0E0,1.0228061E7,1.1880915E6,7.03423E5,2.0033146E6,2.9483998E6,9.58298E6,1.0339338E7,2.3901655E6,0E0,0E0,6.5195975E5,1.6729846E6,0E0,0E0,0E0,0E0,0E0,0E0,0E0,0E0,0E0,0E0,0E0,0E0,0E0,0E0,0E0,0E0,0E0,0E0,0E0,0E0,0E0,0E0,0E0,0E0,0E0],"parents":[2147483647,0,0,1,1,2,2,3,3,4,4,5,5,6,6,7,7,8,8,9,9,10,10,11,11,12,12,15,15,16,16,17,17,18,18,19,19,20,20,23,23,24,24,27,27,28,28,30,30,31,31,32,32,33,33,34,34,35,35,36,36,37,37,40,40,41,41],"right_children":[2,4,6,8,10,12,14,16,18,20,22,24,26,-1,-1,28,30,32,34,36,38,-1,-1,40,42,-1,-1,44,46,-1,48,50,52,54,56,58,60,62,-1,-1,64,66,-1,-1,-1,-1,-1,-1,-1,-1,-1,-1,-1,-1,-1,-1,-1,-1,-1,-1,-1,-1,-1,-1,-1,-1,-1],"split_conditions":[3.27E3,1.7578415E0,1.898114E0,1.7490711E0,1.968492E0,1.8680981E0,1.9233712E0,8.84E2,5E-1,2.94E3,2.1396475E0,1.8382545E0,3.733E3,8.7649225E2,2.8209064E2,1.25E1,1.4928665E0,8.025E2,1.755692E0,9.1443825E-1,5E-1,6.701155E2,-1.5065486E2,1.6393871E0,8.05509E-1,3.9982178E1,-2.016548E2,6.339327E-1,3.295E2,7.9002277E2,1.7236788E0,1.755692E0,8.05509E-1,5E-1,1.2215E3,1.8146179E0,1.65E3,9.1443825E-1,3.9664587E2,-2.0076732E2,4.125E3,4.1E3,7.5201666E2,2.0160262E2,1.0104504E1,4.749749E0,2.4768232E1,2.5547705E1,1.6347157E2,-7.528748E1,7.183191E1,-4.0013132E2,-1.8959735E2,-2.0208897E2,5.8564014E1,2.910853E2,-3.385963E1,1.2882008E2,2.0921286E1,3.596316E1,3.9146387E2,-3.302095E1,-3.7309384E2,4.711293E1,2.894518E2,3.9642746E2,-4.2200245E1],"split_indices":[0,1,1,1,1,1,1,0,5,0,1,1,0,0,0,0,1,0,1,3,9,0,0,1,4,0,0,4,0,0,1,1,4,8,0,1,0,3,0,0,0,0,0,0,0,0,0,0,0,0,0,0,0,0,0,0,0,0,0,0,0,0,0,0,0,0,0],"split_type":[0,0,0,0,0,0,0,0,0,0,0,0,0,0,0,0,0,0,0,0,0,0,0,0,0,0,0,0,0,0,0,0,0,0,0,0,0,0,0,0,0,0,0,0,0,0,0,0,0,0,0,0,0,0,0,0,0,0,0,0,0,0,0,0,0,0,0],"sum_hessian":[2.118E3,2.097E3,2.1E1,1.743E3,3.54E2,1.5E1,6E0,1.686E3,5.7E1,3.5E2,4E0,1.1E1,4E0,4E0,2E0,1.443E3,2.43E2,3.8E1,1.9E1,3.41E2,9E0,3E0,1E0,5E0,6E0,1E0,3E0,1.8E1,1.425E3,1E0,2.42E2,1.9E1,1.9E1,1E1,9E0,3.1E2,3.1E1,8E0,1E0,1E0,4E0,2E0,4E0,8E0,1E1,4.03E2,1.022E3,1.76E2,6.6E1,7E0,1.2E1,2E0,1.7E1,3E0,7E0,5E0,4E0,1.87E2,1.23E2,1.2E1,1.9E1,3E0,5E0,3E0,1E0,1E0,1E0],"tree_param":{"num_deleted":"0","num_feature":"10","num_nodes":"67","size_leaf_vector":"0"}},{"base_weights":[9.930495E1,8.884805E1,1.0919987E3,6.544862E1,2.9347913E2,6.6656305E2,1.908423E3,4.9289158E1,2.9052042E2,2.5520064E2,1.2520347E3,1.0435173E3,-3.7143985E2,2.2204468E3,7.522422E2,6.1712536E1,-1.9917355E2,2.6729239E1,6.41747E2,-2.434989E0,4.5955334E2,-1.3724284E1,1.6762417E3,1.6489644E2,1.647547E3,1.13282715E2,-5.2094116E2,5.374135E1,8.8536444E2,-3.6005872E2,4.8012268E1,2.3625867E2,-1.4256833E2,1.6135293E3,2.6128497E2,3.6578983E2,-5.956184E2,2.955482E2,1.0759252E3,2.962119E2,-3.1679834E2,-1.5516309E2,2.0735552E3,-5.688407E2,4.2541202E2,6.690957E2,1.9051084E3,5.759639E1,-1.0192074E3,2.101858E3,3.0471176E2,6.0324482E1,-5.720246E2,-1.8717192E2,5.567767E2,7.064443E1,1.8688529E3,8.3238884E1,-6.952057E2,1.5693359E0,2.1995537E3,-9.350644E2,4.2018668E2,1.3560341E2,1.336986E3,5.0101463E1,-1.6138998E3,3.9739423E2,-1.01247345E3,3.2295054E3,6.1448486E2,1.2170825E2,8.201135E2,1.1232109E3,-1.1956738E2,5.6521875E2,2.0987761E3],"categories":[],"categories_nodes":[],"categories_segments":[],"categories_sizes":[],"default_left":[1,1,1,1,1,1,1,1,1,1,1,1,1,0,0,1,1,1,1,1,1,1,1,1,1,0,0,1,1,1,1,1,1,1,1,1,1,1,1,0,0,0,0,0,1,1,1,0,0,0,0,0,0,0,0,0,0,0,0,0,0,0,0,0,0,0,0,0,0,0,0,0,0,0,0,0,0],"id":10,"left_children":[1,3,5,7,9,11,13,15,17,19,21,23,25,-1,-1,27,29,31,33,35,37,39,41,43,45,-1,-1,47,49,51,53,55,57,59,61,63,65,67,69,-1,-1,-1,-1,-1,71,73,75,-1,-1,-1,-1,-1,-1,-1,-1,-1,-1,-1,-1,-1,-1,-1,-1,-1,-1,-1,-1,-1,-1,-1,-1,-1,-1,-1,-1,-1,-1],"loss_changes":[2.1899244E7,1.0026542E7,6.369306E6,6.8378625E6,7.56927E6,6.6480785E6,8.54978E5,5.441877E6,1.1656806E7,1.0952014E7,4.318558E6,6.096883E6,4.2134694E5,0E0,0E0,1.0956172E7,3.357844E6,2.623199E6,1.9543624E7,2.0531382E7,1.1408238E7,3.756403E5,4.687592E6,1.3888914E6,4.8938E5,0E0,0E0,6.929036E6,1.0661305E7,4.5789585E6,4.1724265E6,8.790544E6,5.1742375E6,1.4166272E7,7.996981E6,1.2784959E7,2.375174E7,1.2791512E7,2.1865484E7,0E0,0E0,0E0,0E0,0E0,4.9954712E5,1.2087311E6,1.11198E5,0E0,0E0,0E0,0E0,0E0,0E0,0E0,0E0,0E0,0E0,0E0,0E0,0E0,0E0,0E0,0E0,0E0,0E0,0E0,0E0,0E0,0E0,0E0,0E0,0E0,0E0,0E0,0E0,0E0,0E0],"parents":[2147483647,0,0,1,1,2,2,3,3,4,4,5,5,6,6,7,7,8,8,9,9,10,10,11,11,12,12,15,15,16,16,17,17,18,18,19,19,20,20,21,21,22,22,23,23,24,24,27,27,28,28,29,29,30,30,31,31,32,32,33,33,34,34,35,35,36,36,37,37,38,38,44,44,45,45,46,46],"right_children":[2,4,6,8,10,12,14,16,18,20,22,24,26,-1,-1,28,30,32,34,36,38,40,42,44,46,-1,-1,48,50,52,54,56,58,60,62,64,66,68,70,-1,-1,-1,-1,-1,72,74,76,-1,-1,-1,-1,-1,-1,-1,-1,-1,-1,-1,-1,-1,-1,-1,-1,-1,-1,-1,-1,-1,-1,-1,-1,-1,-1,-1,-1,-1,-1],"split_conditions":[3.27E3,9.1443825E-1,1.898114E0,1.358E3,1.934407E0,1.8680981E0,1.9233712E0,1.7694286E0,8.05509E-1,5E-1,5E-1,1.8382545E0,3.733E3,6.6613403E2,2.2567267E2,1.7634108E0,1.8031628E0,5E-1,1.5075E3,5E-1,1.9665E3,2.245E3,6.339327E-1,1.6393871E0,8.05509E-1,3.3984818E1,-1.5628235E2,1.3435E3,1.7647707E0,7.8E2,9.1443825E-1,8.05509E-1,1.984E3,1.7551272E0,1.7015667E0,1.8750856E0,1.725E3,1.8545E3,1.8031628E0,8.886358E1,-9.5039505E1,-4.6548927E1,6.220666E2,-1.7065222E2,4.125E3,4.1E3,8.05509E-1,1.7278917E1,-3.0576224E2,6.305574E2,9.141353E1,1.8097345E1,-1.7160739E2,-5.6151577E1,1.67033E2,2.119333E1,5.606559E2,2.4971666E1,-2.0856172E2,4.708008E-1,6.5986615E2,-2.8051932E2,1.2605601E2,4.0681023E1,4.010958E2,1.5030439E1,-4.8416995E2,1.1921827E2,-3.0374203E2,9.688516E2,1.8434546E2,3.6512478E1,2.4603407E2,3.369633E2,-3.5870216E1,1.6956563E2,6.296329E2],"split_indices":[0,2,1,0,1,1,1,1,2,5,6,1,0,0,0,1,1,5,0,6,0,0,3,1,4,0,0,0,1,0,4,3,0,1,1,1,0,0,1,0,0,0,0,0,0,0,3,0,0,0,0,0,0,0,0,0,0,0,0,0,0,0,0,0,0,0,0,0,0,0,0,0,0,0,0,0,0],"split_type":[0,0,0,0,0,0,0,0,0,0,0,0,0,0,0,0,0,0,0,0,0,0,0,0,0,0,0,0,0,0,0,0,0,0,0,0,0,0,0,0,0,0,0,0,0,0,0,0,0,0,0,0,0,0,0,0,0,0,0,0,0,0,0,0,0,0,0,0,0,0,0,0,0,0,0,0,0],"sum_hessian":[2.118E3,2.097E3,2.1E1,1.883E3,2.14E2,1.5E1,6E0,1.758E3,1.25E2,2.07E2,7E0,1.1E1,4E0,4E0,2E0,1.675E3,8.3E1,7.2E1,5.3E1,9.2E1,1.15E2,2E0,5E0,5E0,6E0,1E0,3E0,1.66E3,1.5E1,5E1,3.3E1,3.2E1,4E1,1.4E1,3.9E1,5.7E1,3.5E1,9.2E1,2.3E1,1E0,1E0,1E0,4E0,1E0,4E0,2E0,4E0,1.655E3,5E0,4E0,1.1E1,1.7E1,3.3E1,2.3E1,1E1,3E1,2E0,2.9E1,1.1E1,4E0,1E1,4E0,3.5E1,4.7E1,1E1,2.2E1,1.3E1,8.6E1,6E0,3E0,2E1,3E0,1E0,1E0,1E0,1E0,3E0],"tree_param":{"num_deleted":"0","num_feature":"10","num_nodes":"77","size_leaf_vector":"0"}},{"base_weights":[7.1772736E1,6.3530956E1,8.544761E2,4.9806187E1,2.5366975E2,5.3471204E2,1.4632971E3,5.2053993E1,-1.4323663E3,6.1926263E2,1.2242588E2,8.314775E2,-2.8446738E2,1.9592474E3,8.7306757E2,4.683364E1,5.30842E2,6.594045E0,1.6253185E3,4.703703E2,-6.59273E1,2.096416E1,1.2341136E3,9.629053E1,-4.037295E2,5.0882298E1,-6.0654114E2,3.1095537E3,2.4642873E2,2.8938934E2,-8.9002344E2,3.5857053E3,9.997786E2,-8.8274574E1,1.2956011E3,1.8906569E3,-2.8227908E2,-3.2234302E2,6.9709644E2,5.9977246E2,1.4947639E3,4.3044952E1,2.3347339E2,-9.406751E2,4.9381447E1,6.231048E2,-4.3279934E0,-3.6915546E2,6.217297E2,-1.652572E2,-1.559704E3,3.626001E1,1.6828262E3,-3.4923495E2,9.210297E2,2.0086921E3,4.205599E2,3.4344824E3,-1.25832886E2,-6.179925E2,4.18576E2,-1.978955E1,-4.1659766E2,8.674515E2,-1.01632324E2],"categories":[],"categories_nodes":[],"categories_segments":[],"categories_sizes":[],"default_left":[1,1,1,1,1,1,1,1,0,1,1,1,1,0,0,1,1,1,1,1,1,1,1,0,0,1,1,0,1,1,1,0,1,1,1,1,1,1,0,1,0,0,0,0,0,0,0,0,0,0,0,0,0,0,0,0,0,0,0,0,0,0,0,0,0],"id":11,"left_children":[1,3,5,7,9,11,13,15,-1,17,19,21,23,-1,-1,25,27,29,31,33,35,37,39,-1,-1,41,43,-1,45,47,49,-1,51,53,55,57,59,61,-1,63,-1,-1,-1,-1,-1,-1,-1,-1,-1,-1,-1,-1,-1,-1,-1,-1,-1,-1,-1,-1,-1,-1,-1,-1,-1],"loss_changes":[1.3615098E7,5.46233E6,3.500497E6,6.597909E6,6.689623E6,4.126194E6,3.38516E5,4.8640465E6,0E0,2.27953E7,6.912337E6,3.890231E6,2.6592528E5,0E0,0E0,5.152144E6,1.4635532E7,6.3429845E6,1.3583292E7,1.7171776E7,2.9742114E7,1.3853095E6,4.26211E5,0E0,0E0,2.744682E6,2.676444E6,0E0,1.891778E6,4.387874E6,2.6544185E6,0E0,7.836529E6,6.37959E6,8.514986E6,2.2223932E7,1.5081723E7,1.0582397E5,0E0,8.391665E5,0E0,0E0,0E0,0E0,0E0,0E0,0E0,0E0,0E0,0E0,0E0,0E0,0E0,0E0,0E0,0E0,0E0,0E0,0E0,0E0,0E0,0E0,0E0,0E0,0E0],"parents":[2147483647,0,0,1,1,2,2,3,3,4,4,5,5,6,6,7,7,9,9,10,10,11,11,12,12,15,15,16,16,17,17,18,18,19,19,20,20,21,21,22,22,25,25,26,26,28,28,29,29,30,30,32,32,33,33,34,34,35,35,36,36,37,37,39,39],"right_children":[2,4,6,8,10,12,14,16,-1,18,20,22,24,-1,-1,26,28,30,32,34,36,38,40,-1,-1,42,44,-1,46,48,50,-1,52,54,56,58,60,62,-1,64,-1,-1,-1,-1,-1,-1,-1,-1,-1,-1,-1,-1,-1,-1,-1,-1,-1,-1,-1,-1,-1,-1,-1,-1,-1],"split_conditions":[3.27E3,1.697E3,1.898114E0,1.687E3,1.8255E3,1.8680981E0,1.9072473E0,1.8601732E0,-4.2970993E2,1.8192542E0,1.813165E0,1.8087101E0,3.733E3,5.8777423E2,2.619203E2,1.8449626E0,1.8625671E0,9.1443825E-1,1.8385702E0,1.7647707E0,6.339327E-1,4.125E3,1.8481879E0,2.888716E1,-1.2111885E2,1.7973595E0,9.929034E-1,9.3286615E2,9.1443825E-1,1.7026255E0,1.7940829E0,1.0757117E3,8.05509E-1,2.45E3,2.251E3,2.55E3,9.1443825E-1,3.595E3,2.0912894E2,9.929034E-1,4.484292E2,1.29134865E1,7.004202E1,-2.8220255E2,1.4814435E1,1.8693144E2,-1.298398E0,-1.1074664E2,1.865189E2,-4.9577164E1,-4.6791122E2,1.0878003E1,5.0484787E2,-1.0477049E2,2.7630893E2,6.0260767E2,1.2616798E2,1.0303447E3,-3.7749866E1,-1.8539775E2,1.255728E2,-5.9368653E0,-1.249793E2,2.6023544E2,-3.0489698E1],"split_indices":[0,0,1,0,0,1,1,1,0,1,1,1,0,0,0,1,1,4,1,1,3,0,1,0,0,1,2,0,4,1,1,0,3,0,0,0,3,0,0,2,0,0,0,0,0,0,0,0,0,0,0,0,0,0,0,0,0,0,0,0,0,0,0,0,0],"split_type":[0,0,0,0,0,0,0,0,0,0,0,0,0,0,0,0,0,0,0,0,0,0,0,0,0,0,0,0,0,0,0,0,0,0,0,0,0,0,0,0,0,0,0,0,0,0,0,0,0,0,0,0,0,0,0,0,0,0,0,0,0,0,0,0,0],"sum_hessian":[2.118E3,2.097E3,2.1E1,1.957E3,1.4E2,1.5E1,6E0,1.955E3,2E0,3.6E1,1.04E2,1.1E1,4E0,2E0,4E0,1.935E3,2E1,2.3E1,1.3E1,3.6E1,6.8E1,4E0,7E0,1E0,3E0,1.924E3,1.1E1,1E0,1.9E1,1.8E1,5E0,2E0,1.1E1,2.2E1,1.4E1,6E0,6.2E1,3E0,1E0,3E0,4E0,1.846E3,7.8E1,7E0,4E0,7E0,1.2E1,6E0,1.2E1,3E0,2E0,5E0,6E0,1.8E1,4E0,7E0,7E0,3E0,3E0,4.2E1,2E1,1E0,2E0,2E0,1E0],"tree_param":{"num_deleted":"0","num_feature":"10","num_nodes":"65","size_leaf_vector":"0"}},{"base_weights":[5.2600967E1,3.6971634E1,3.550638E2,4.0692654E1,-1.216352E3,7.8723236E1,6.885253E2,5.5666924E0,8.750723E1,-1.3800852E3,-1.9884326E2,3.6306937E2,-5.733276E2,3.3264194E3,5.5886633E2,2.6120255E1,-1.2955551E2,2.152148E2,3.4396538E1,-1.3486353E3,4.8542947E2,-1.0313618E3,5.146345E2,3.5480887E2,9.999399E2,-1.0264536E-3,9.060717E1,-3.088858E1,-2.3313838E2,3.3894814E1,4.7894397E2,-3.8974037E1,1.5663742E2,2.2855205E2,1.2075188E3,9.0621484E2,-1.2683445E3,1.3895757E3,6.173115E1,8.2582556E2,8.176301E1,-3.231167E2,1.3901477E3,5.661794E0,-3.6139185E2,4.3149496E2,4.3277725E1,-6.805356E1,6.8296814E2,-3.979229E2,-1.1174159E2,9.910035E1,-3.9815643E2,1.9666855E2,8.842328E2,-3.5207791E0,-3.1839575E2,4.12705E1,6.846304E2,-2.4107025E2,7.142457E2,1.6671919E3,4.144074E2,-1.7349686E3,-2.6807684E2,-2.2713025E2,6.085884E2,-5.9878254E1,1.00895416E3,-7.652187E2,7.269979E2,-7.894404E2,9.547135E1,1.579844E3,-2.5340771E2],"categories":[],"categories_nodes":[],"categories_segments":[],"categories_sizes":[],"default_left":[1,1,1,1,1,1,1,1,1,0,0,1,1,0,1,1,1,1,1,0,1,1,1,1,1,1,1,1,1,1,1,1,1,1,1,0,1,0,1,1,1,1,1,0,0,0,0,0,0,0,0,0,0,0,0,0,0,0,0,0,0,0,0,0,0,0,0,0,0,0,0,0,0,0,0],"id":12,"left_children":[1,3,5,7,9,11,13,15,17,-1,-1,19,21,-1,23,25,27,29,31,-1,33,35,37,39,41,43,45,47,49,51,53,55,57,59,61,-1,63,-1,65,67,69,71,73,-1,-1,-1,-1,-1,-1,-1,-1,-1,-1,-1,-1,-1,-1,-1,-1,-1,-1,-1,-1,-1,-1,-1,-1,-1,-1,-1,-1,-1,-1,-1,-1],"loss_changes":[1.0004006E7,9.451399E6,9.529287E6,3.3064155E6,7.25179E5,1.096183E7,1.421623E7,3.1972132E6,5.839231E6,0E0,0E0,9.241887E6,9.500604E6,0E0,3.785412E6,1.6827965E6,1.5462698E6,1.2082067E7,5.477124E6,0E0,6.958069E6,7.118628E6,2.291803E6,4.1765802E6,7.67692E6,1.459148E6,4.6279265E6,2.1423855E6,1.4358545E6,4.2934495E6,1.1609618E7,3.7831278E6,1.3920804E7,7.014961E6,2.954822E6,0E0,5.135884E6,0E0,9.2805856E5,2.0067865E6,1.257936E7,8.561591E5,3.829884E6,0E0,0E0,0E0,0E0,0E0,0E0,0E0,0E0,0E0,0E0,0E0,0E0,0E0,0E0,0E0,0E0,0E0,0E0,0E0,0E0,0E0,0E0,0E0,0E0,0E0,0E0,0E0,0E0,0E0,0E0,0E0,0E0],"parents":[2147483647,0,0,1,1,2,2,3,3,4,4,5,5,6,6,7,7,8,8,11,11,12,12,14,14,15,15,16,16,17,17,18,18,20,20,21,21,22,22,23,23,24,24,25,25,26,26,27,27,28,28,29,29,30,30,31,31,32,32,33,33,34,34,36,36,38,38,39,39,40,40,41,41,42,42],"right_children":[2,4,6,8,10,12,14,16,18,-1,-1,20,22,-1,24,26,28,30,32,-1,34,36,38,40,42,44,46,48,50,52,54,56,58,60,62,-1,64,-1,66,68,70,72,74,-1,-1,-1,-1,-1,-1,-1,-1,-1,-1,-1,-1,-1,-1,-1,-1,-1,-1,-1,-1,-1,-1,-1,-1,-1,-1,-1,-1,-1,-1,-1,-1],"split_conditions":[1.8498574E0,1.8449626E0,2.245E3,1.6771438E0,1.0197763E0,1.857E3,2.275E3,8.05509E-1,8.05509E-1,-4.1402557E2,-5.965298E1,2.6329452E-1,9.1443825E-1,9.9792584E2,1.053545E0,6.339327E-1,4.275E2,8.64E2,5E-1,-4.045906E2,1.697E3,3.7063816E-1,5E-1,2.65E3,8.05509E-1,1.498E3,6.339327E-1,4.06E2,5E-1,1.7280827E0,8.05509E-1,1.8146179E0,1.7973595E0,5E-1,1.8804004E0,2.7186447E2,1.8976738E0,4.168727E2,1.102583E0,6.339327E-1,3.195E3,2.65E3,3.975E3,1.6985383E0,-1.0841756E2,1.294485E2,1.2983318E1,-2.0416069E1,2.0489046E2,-1.1937688E2,-3.352248E1,2.9730106E1,-1.1944694E2,5.900057E1,2.6526984E2,-1.0562338E0,-9.551873E1,1.238115E1,2.0538911E2,-7.2321075E1,2.1427373E2,5.001576E2,1.2432223E2,-5.204906E2,-8.042306E1,-6.813908E1,1.8257652E2,-1.7963476E1,3.0268625E2,-2.2956561E2,2.1809938E2,-2.3683214E2,2.8641407E1,4.7395322E2,-7.6022316E1],"split_indices":[1,1,0,1,2,0,0,4,4,0,0,3,3,0,2,2,0,0,8,0,0,3,5,0,3,0,4,0,6,1,2,1,1,8,1,0,1,0,2,2,0,0,0,0,0,0,0,0,0,0,0,0,0,0,0,0,0,0,0,0,0,0,0,0,0,0,0,0,0,0,0,0,0,0,0],"split_type":[0,0,0,0,0,0,0,0,0,0,0,0,0,0,0,0,0,0,0,0,0,0,0,0,0,0,0,0,0,0,0,0,0,0,0,0,0,0,0,0,0,0,0,0,0,0,0,0,0,0,0,0,0,0,0,0,0,0,0,0,0,0,0,0,0,0,0,0,0,0,0,0,0,0,0],"sum_hessian":[2.118E3,2.015E3,1.03E2,2.01E3,5E0,5.7E1,4.6E1,1.149E3,8.61E2,4E0,1E0,4E1,1.7E1,1E0,4.5E1,9.98E2,1.51E2,2.52E2,6.09E2,2E0,3.8E1,1.2E1,5E0,3.2E1,1.3E1,7.11E2,2.87E2,7.8E1,7.3E1,1.5E2,1.02E2,3.81E2,2.28E2,2.9E1,9E0,1E0,1.1E1,1E0,4E0,1.1E1,2.1E1,3E0,1E1,7.01E2,1E1,3.4E1,2.53E2,7.5E1,3E0,3E1,4.3E1,1.31E2,1.9E1,6.1E1,4.1E1,3.39E2,4.2E1,1.88E2,4E1,1.5E1,1.4E1,5E0,4E0,7E0,4E0,3E0,1E0,2E0,9E0,9E0,1.2E1,1E0,2E0,9E0,1E0],"tree_param":{"num_deleted":"0","num_feature":"10","num_nodes":"75","size_leaf_vector":"0"}},{"base_weights":[3.7752426E1,2.585502E1,2.6801605E2,2.8695215E1,-9.3039294E2,6.483223E1,5.130511E2,8.8256645E0,8.0935486E1,-1.0488647E3,-1.6901685E2,2.7470166E2,-3.8041037E2,2.8274565E3,4.0127148E2,2.2392504E0,5.07542E2,2.1172833E2,3.0954784E1,-3.0934607E2,-1.156408E3,-1.0789081E3,3.7433658E2,-7.086123E2,4.487959E2,2.3974178E2,8.9343494E2,8.2551365E0,-4.253014E2,-4.6728046E2,7.1952625E2,-1.1280573E1,4.2076556E2,5.202991E1,-4.4939545E2,1.6471825E2,1.0314714E3,7.702827E2,-8.81626E2,1.1811392E3,6.609941E1,4.0266956E2,-1.6866869E3,1.1771257E3,1.0269458E2,3.713884E0,6.486544E2,-9.534832E2,9.660367E2,-8.0121246E2,2.672578E2,8.467885E2,-5.947042E2,-9.865866E1,1.2317444E3,-1.8142409E2,7.0291675E2,2.4089874E1,1.561342E3,-8.94747E2,5.1620685E2,2.940923E2,-1.0976788E3,1.541699E3,3.1494962E2,-1.1602716E3,-2.0373857E2,-1.7602588E2,5.173003E2,2.9452402E2,1.4219987E3,-2.329149E3,-2.0088135E2,3.40729E2,1.610818E3,-2.1728271E2,2.8178125E2],"categories":[],"categories_nodes":[],"categories_segments":[],"categories_sizes":[],"default_left":[1,1,1,1,1,1,1,1,1,1,0,1,1,0,1,1,1,1,1,0,0,0,1,1,1,1,1,1,1,1,1,1,1,1,1,1,1,0,1,0,1,1,1,1,1,0,0,0,0,0,0,0,0,0,0,0,0,0,0,0,0,0,0,0,0,0,0,0,0,0,0,0,0,0,0,0,0],"id":13,"left_children":[1,3,5,7,9,11,13,15,17,19,-1,21,23,-1,25,27,29,31,33,-1,-1,-1,35,37,39,41,43,45,47,49,51,53,55,57,59,61,63,-1,65,-1,67,69,71,73,75,-1,-1,-1,-1,-1,-1,-1,-1,-1,-1,-1,-1,-1,-1,-1,-1,-1,-1,-1,-1,-1,-1,-1,-1,-1,-1,-1,-1,-1,-1,-1,-1],"loss_changes":[5.7981555E6,5.5020145E6,5.1446025E6,2.0866849E6,3.639345E5,5.5241825E6,1.1024479E7,4.788032E6,3.6150098E6,3.99205E4,0E0,5.798547E6,5.488817E6,0E0,3.442761E6,3.7072422E6,4.2625135E6,7.137172E6,4.0930055E6,0E0,0E0,0E0,5.0645025E6,4.2612685E6,1.6035188E6,1.1978452E7,2.346699E6,4.1301632E6,1.5618688E7,1.1952738E6,3.179621E6,8.267508E6,1.35503E7,1.6240099E7,7.7724265E6,5.2224615E6,2.804745E6,0E0,2.219183E6,0E0,6.3729394E5,3.329208E6,2.395838E6,2.353058E6,2.9044084E5,0E0,0E0,0E0,0E0,0E0,0E0,0E0,0E0,0E0,0E0,0E0,0E0,0E0,0E0,0E0,0E0,0E0,0E0,0E0,0E0,0E0,0E0,0E0,0E0,0E0,0E0,0E0,0E0,0E0,0E0,0E0,0E0],"parents":[2147483647,0,0,1,1,2,2,3,3,4,4,5,5,6,6,7,7,8,8,9,9,11,11,12,12,14,14,15,15,16,16,17,17,18,18,22,22,23,23,24,24,25,25,26,26,27,27,28,28,29,29,30,30,31,31,32,32,33,33,34,34,35,35,36,36,38,38,40,40,41,41,42,42,43,43,44,44],"right_children":[2,4,6,8,10,12,14,16,18,20,-1,22,24,-1,26,28,30,32,34,-1,-1,-1,36,38,40,42,44,46,48,50,52,54,56,58,60,62,64,-1,66,-1,68,70,72,74,76,-1,-1,-1,-1,-1,-1,-1,-1,-1,-1,-1,-1,-1,-1,-1,-1,-1,-1,-1,-1,-1,-1,-1,-1,-1,-1,-1,-1,-1,-1,-1,-1],"split_conditions":[1.8498574E0,1.8449626E0,2.245E3,6.339327E-1,1.0197763E0,1.825E3,2.275E3,1.8031628E0,8.05509E-1,8.5020554E-1,-5.0705055E1,2.6329452E-1,9.1443825E-1,8.48237E2,1.9204813E0,1.7801595E0,2.6329452E-1,5E-1,2.2255E3,-9.2803825E1,-3.469224E2,-3.2367242E2,1.697E3,3.7063816E-1,5E-1,1.9152036E0,2.895E3,1.7687641E0,1.435E3,1.4E3,5E-1,8.05509E-1,1.6619674E0,1.9615E3,2.8785E3,1.6865E3,1.8804004E0,2.3108482E2,1.8976738E0,3.5434177E2,1.102583E0,4.9315E3,2.825E3,8.05509E-1,3.895E3,1.1141653E0,1.9459633E2,-2.8604498E2,2.89811E2,-2.4036375E2,8.0177345E1,2.5403656E2,-1.7841127E2,-2.9597599E1,3.6952332E2,-5.4427227E1,2.1087503E2,7.2269626E0,4.6840262E2,-2.684241E2,1.5486206E2,8.822769E1,-3.2930365E2,4.625097E2,9.4484886E1,-3.4808148E2,-6.1121574E1,-5.2807766E1,1.551901E2,8.835721E1,4.265996E2,-6.987447E2,-6.026441E1,1.02218704E2,4.8324542E2,-6.5184814E1,8.453438E1],"split_indices":[1,1,0,3,2,0,0,1,4,2,0,3,3,0,1,1,3,5,0,0,0,0,0,3,5,1,0,1,0,0,5,3,1,0,0,0,1,0,1,0,2,0,0,3,0,0,0,0,0,0,0,0,0,0,0,0,0,0,0,0,0,0,0,0,0,0,0,0,0,0,0,0,0,0,0,0,0],"split_type":[0,0,0,0,0,0,0,0,0,0,0,0,0,0,0,0,0,0,0,0,0,0,0,0,0,0,0,0,0,0,0,0,0,0,0,0,0,0,0,0,0,0,0,0,0,0,0,0,0,0,0,0,0,0,0,0,0,0,0,0,0,0,0,0,0,0,0,0,0,0,0,0,0,0,0,0,0],"sum_hessian":[2.118E3,2.015E3,1.03E2,2.01E3,5E0,5.7E1,4.6E1,1.457E3,5.53E2,4E0,1E0,3.9E1,1.8E1,1E0,4.5E1,1.439E3,1.8E1,1.52E2,4.01E2,1E0,3E0,2E0,3.7E1,1.3E1,5E0,3.5E1,1E1,1.42E3,1.9E1,3E0,1.5E1,7.4E1,7.8E1,3.85E2,1.6E1,2.9E1,8E0,1E0,1.2E1,1E0,4E0,3.3E1,2E0,7E0,3E0,1.411E3,9E0,1.4E1,5E0,2E0,1E0,1.4E1,1E0,7E1,4E0,2.5E1,5.3E1,3.79E2,6E0,1.1E1,5E0,2.7E1,2E0,4E0,4E0,8E0,4E0,3E0,1E0,3.1E1,2E0,1E0,1E0,3E0,4E0,1E0,2E0],"tree_param":{"num_deleted":"0","num_feature":"10","num_nodes":"77","size_leaf_vector":"0"}},{"base_weights":[2.7352947E1,2.5814505E1,1.1038636E3,2.351405E1,7.1587805E2,2.2708789E2,1.4287075E3,2.9723758E2,2.0489084E1,8.1447914E1,9.5336053E2,2.6034164E1,5.436712E2,1.4372822E1,1.4731549E2,-3.3053125E2,4.5270312E2,1.3635098E3,2.2542448E2,4.7855182E2,-3.6555728E2,7.97189E2,1.5728857E2,2.3178864E1,-2.0816882E2,3.4009146E2,-1.1958133E2,-2.9372043E2,9.3811804E2,-1.0487991E1,-6.2923724E2,-8.337724E1,6.8030884E2,1.727103E1,9.605926E2,-8.613099E2,9.380303E0,1.9448546E2,1.7863756E3,-4.1263165E2,2.7779584E2],"categories":[],"categories_nodes":[],"categories_segments":[],"categories_sizes":[],"default_left":[1,1,1,1,1,0,0,1,1,1,1,1,1,1,1,0,0,0,0,1,1,0,1,1,1,1,1,0,0,0,0,0,0,0,0,0,0,0,0,0,0],"id":14,"left_children":[1,3,5,7,9,-1,-1,11,13,15,17,19,21,23,25,-1,-1,-1,-1,27,29,-1,31,33,35,37,39,-1,-1,-1,-1,-1,-1,-1,-1,-1,-1,-1,-1,-1,-1],"loss_changes":[3.4808875E6,3.3438192E6,5.300035E5,1.7418276E6,9.7701325E5,0E0,0E0,1.5230198E6,1.6183272E6,6.0848075E5,1.1854435E6,2.3013628E6,1.0500698E6,3.9124885E6,4.979993E6,0E0,0E0,0E0,0E0,2.4050058E6,6.487731E5,0E0,8.119609E5,1.0610991E7,1.0806938E7,1.1445484E7,4.889139E6,0E0,0E0,0E0,0E0,0E0,0E0,0E0,0E0,0E0,0E0,0E0,0E0,0E0,0E0],"parents":[2147483647,0,0,1,1,2,2,3,3,4,4,7,7,8,8,9,9,10,10,11,11,12,12,13,13,14,14,19,19,20,20,22,22,23,23,24,24,25,25,26,26],"right_children":[2,4,6,8,10,-1,-1,12,14,16,18,20,22,24,26,-1,-1,-1,-1,28,30,-1,32,34,36,38,40,-1,-1,-1,-1,-1,-1,-1,-1,-1,-1,-1,-1,-1,-1],"split_conditions":[1.053545E0,4.744E3,2.25E3,1.25E1,8.5020554E-1,6.812637E1,4.2861227E2,5E-1,1.8498574E0,4.9315E3,1.9192922E0,6.339327E-1,5.5E0,1.8146179E0,1.8896064E0,-9.915938E1,1.3581094E2,4.0905295E2,6.762735E1,1.6006868E0,1.65486E0,2.3915672E2,1.757726E0,1.80726E0,1.8225098E0,1.881387E0,5E-1,-8.8116135E1,2.8143542E2,-3.1463976E0,-1.8877118E2,-2.5013174E1,2.0409267E2,5.181309E0,2.881778E2,-2.5839297E2,2.8140912E0,5.834564E1,5.359127E2,-1.237895E2,8.333875E1],"split_indices":[4,0,0,0,3,0,0,8,1,0,1,4,0,1,1,0,0,0,0,1,1,0,1,1,1,1,5,0,0,0,0,0,0,0,0,0,0,0,0,0,0],"split_type":[0,0,0,0,0,0,0,0,0,0,0,0,0,0,0,0,0,0,0,0,0,0,0,0,0,0,0,0,0,0,0,0,0,0,0,0,0,0,0,0,0],"sum_hessian":[2.118E3,2.116E3,2E0,2.11E3,6E0,1E0,1E0,2.2E1,2.088E3,2E0,4E0,1.1E1,1.1E1,1.993E3,9.5E1,1E0,1E0,2E0,2E0,5E0,6E0,6E0,5E0,1.918E3,7.5E1,5.5E1,4E1,2E0,3E0,3E0,3E0,4E0,1E0,1.907E3,1.1E1,1.8E1,5.7E1,5.1E1,4E0,2.3E1,1.7E1],"tree_param":{"num_deleted":"0","num_feature":"10","num_nodes":"41","size_leaf_vector":"0"}},{"base_weights":[2.0100939E1,1.8066597E1,6.313104E2,1.6665516E1,7.526201E2,9.3039594E2,-5.816013E2,1.903189E1,-2.9422333E2,9.5597784E2,7.127344E1,3.3707162E2,1.1427902E3,1.6594503E1,6.528109E2,-1.3651257E3,1.7650461E2,1.8583193E1,-4.448576E2,1.3495605E1,8.6366675E2,-2.0670164E3,-2.0819304E2,1.5790186E3,-9.45438E1,1.2986257E1,1.9188844E2,-1.9616894E1,-7.8112683E2,2.0428955E1,-1.8554688E-1,6.413086E1,1.01074774E3,-2.9394318E2,5.3516895E2],"categories":[],"categories_nodes":[],"categories_segments":[],"categories_sizes":[],"default_left":[1,1,1,1,1,1,0,1,1,0,0,0,0,1,1,1,1,1,1,1,1,0,0,0,1,0,0,0,0,0,0,0,0,0,0],"id":15,"left_children":[1,3,5,7,9,11,-1,13,15,-1,-1,-1,-1,17,19,21,23,25,27,29,31,-1,-1,-1,33,-1,-1,-1,-1,-1,-1,-1,-1,-1,-1],"loss_changes":[2.6233798E6,2.1620912E6,3.0804698E6,1.5578836E6,4.860925E5,3.7091E5,0E0,3.225449E6,8.30661E6,0E0,0E0,0E0,0E0,1.9243932E6,1.0667712E6,3.629863E6,4.7110765E6,2.0150635E6,1.2716349E6,2.8835913E2,6.40759E5,0E0,0E0,0E0,1.5385169E6,0E0,0E0,0E0,0E0,0E0,0E0,0E0,0E0,0E0,0E0],"parents":[2147483647,0,0,1,1,2,2,3,3,4,4,5,5,7,7,8,8,13,13,14,14,15,15,16,16,17,17,18,18,19,19,20,20,24,24],"right_children":[2,4,6,8,10,12,-1,14,16,-1,-1,-1,-1,18,20,22,24,26,28,30,32,-1,-1,-1,34,-1,-1,-1,-1,-1,-1,-1,-1,-1,-1],"split_conditions":[1.9542824E0,4.9315E3,2.1396475E0,1.912713E0,1.9192922E0,1.968492E0,-1.7448041E2,1.9053762E0,1.9228787E0,2.8679337E2,2.1382032E1,1.0112149E2,3.4283707E2,1.8968239E0,6.339327E-1,2.8E3,1.9247754E0,1.8498574E0,5E-1,1.84E3,9.1443825E-1,-6.201049E2,-6.2457912E1,4.737056E2,9.929034E-1,3.8958771E0,5.7566536E1,-5.8850684E0,-2.3433806E2,6.128687E0,-5.5664066E-2,1.9239258E1,3.0322433E2,-8.818295E1,1.6055069E2],"split_indices":[1,0,1,1,1,1,0,1,1,0,0,0,0,1,2,0,1,1,6,0,4,0,0,0,3,0,0,0,0,0,0,0,0,0,0],"split_type":[0,0,0,0,0,0,0,0,0,0,0,0,0,0,0,0,0,0,0,0,0,0,0,0,0,0,0,0,0,0,0,0,0,0,0],"sum_hessian":[2.118E3,2.112E3,6E0,2.109E3,3E0,5E0,1E0,2.094E3,1.5E1,2E0,1E0,2E0,3E0,2.087E3,7E0,4E0,1.1E1,2.079E3,8E0,2E0,5E0,2E0,2E0,1E0,1E1,2.015E3,6.4E1,4E0,4E0,1E0,1E0,1E0,4E0,8E0,2E0],"tree_param":{"num_deleted":"0","num_feature":"10","num_nodes":"35","size_leaf_vector":"0"}},{"base_weights":[1.43494835E1,1.3222534E1,8.048164E2,1.2372665E1,9.0577246E2,1.642417E2,1.0429829E3,-2.663777E1,2.687663E1,8.98662E0,-1.02194824E2,6.8863365E1,-7.2568192E0,-4.3555096E1,1.5632225E2,-1.2343633E2,4.5254556E2,5.9111267E1,7.2804535E2,-8.0344955E1,4.795018E1,1.1418678E2,-8.625879E1,-5.271728E1,2.5127974E2,-9.120787E1,-4.0484445E2,-2.0621094E1,8.125758E2,7.906821E1,-2.3976108E2,1.4572166E3,-7.300156E2,-6.835848E0,-3.2045218E2,8.584433E2,2.9119562E1],"categories":[],"categories_nodes":[],"categories_segments":[],"categories_sizes":[],"default_left":[1,1,1,1,0,0,0,1,1,1,1,1,1,1,1,1,1,1,1,1,1,0,0,0,0,0,0,0,0,0,0,0,0,0,0,0,0],"id":16,"left_children":[1,3,5,7,-1,-1,-1,9,11,13,15,17,19,21,23,25,27,29,31,33,35,-1,-1,-1,-1,-1,-1,-1,-1,-1,-1,-1,-1,-1,-1,-1,-1],"loss_changes":[1.8769966E6,1.5946441E6,2.8638912E5,1.1979612E6,0E0,0E0,0E0,1.5459391E6,2.2118535E6,3.0336438E6,2.2240285E6,4.4054225E6,3.4416525E6,1.9566E6,2.0577832E6,1.5774195E6,1.2092364E6,4.092764E6,1.1695552E7,6.475385E6,7.392376E6,0E0,0E0,0E0,0E0,0E0,0E0,0E0,0E0,0E0,0E0,0E0,0E0,0E0,0E0,0E0,0E0],"parents":[2147483647,0,0,1,1,2,2,3,3,7,7,8,8,9,9,10,10,11,11,12,12,13,13,14,14,15,15,16,16,17,17,18,18,19,19,20,20],"right_children":[2,4,6,8,-1,-1,-1,10,12,14,16,18,20,22,24,26,28,30,32,34,36,-1,-1,-1,-1,-1,-1,-1,-1,-1,-1,-1,-1,-1,-1,-1,-1],"split_conditions":[1.053545E0,5.525E3,2.25E3,1.6162534E0,2.7173175E2,4.927251E1,3.128949E2,6.339327E-1,8.05509E-1,5E-1,7.42E2,8.05509E-1,1.7280827E0,1.5131102E0,1.525447E0,5.785E2,5E-1,1.7280827E0,1.7830085E0,7.58E2,1.7315092E0,3.4256035E1,-2.5877638E1,-1.5815185E1,7.538393E1,-2.7362362E1,-1.2145334E2,-6.1863284E0,2.4377275E2,2.3720463E1,-7.192833E1,4.3716498E2,-2.190047E2,-2.0507545E0,-9.613566E1,2.57533E2,8.735869E0],"split_indices":[4,0,0,1,0,0,0,4,4,8,0,3,1,1,1,0,6,1,1,0,1,0,0,0,0,0,0,0,0,0,0,0,0,0,0,0,0],"split_type":[0,0,0,0,0,0,0,0,0,0,0,0,0,0,0,0,0,0,0,0,0,0,0,0,0,0,0,0,0,0,0,0,0,0,0,0,0],"sum_hessian":[2.118E3,2.116E3,2E0,2.115E3,1E0,1E0,1E0,5.73E2,1.542E3,3.9E2,1.83E2,6.91E2,8.51E2,2.88E2,1.02E2,1.77E2,6E0,6.82E2,9E0,3.66E2,4.85E2,6.1E1,2.27E2,3.2E1,7E1,1.6E2,1.7E1,3E0,3E0,6.4E2,4.2E1,6E0,3E0,2.81E2,8.5E1,1E1,4.75E2],"tree_param":{"num_deleted":"0","num_feature":"10","num_nodes":"37","size_leaf_vector":"0"}},{"base_weights":[1.0577265E1,8.4109E0,3.902539E2,1.0784603E1,-4.0709457E2,-1.9200037E2,7.053811E2,8.943631E0,4.903905E2,-8.945027E2,4.5417734E2,-1.0801971E1,-4.5839697E2,2.5722525E2,8.118955E2,7.3061647E0,4.341809E2,5.6472983E0,6.5103033E2,-1.659437E3,-3.6295175E2,1.3377974E3,-1.01177E2,-1.8203088E2,2.5144238E2,4.6266406E2,-7.682617E1,9.165516E2,1.4430762E2,1.0331582E1,-3.0528223E2,2.9163818E1,6.713584E2,1.2996582E1,-4.525635E0,5.0143066E1,7.611792E2,1.1567676E2,-4.818128E2,-1.7237859E2,5.6213867E1,6.2993083E0,8.379308E2,-7.612277E2,1.3696657E2,2.4828711E2,-3.1410303E2,2.1850879E2,9.004219E2],"categories":[],"categories_nodes":[],"categories_segments":[],"categories_sizes":[],"default_left":[1,1,1,1,1,1,1,1,1,1,1,1,0,1,1,1,1,1,1,0,1,0,1,0,0,0,0,0,0,1,1,1,1,0,0,0,0,0,0,0,0,0,0,0,0,0,0,0,0],"id":17,"left_children":[1,3,5,7,9,11,13,15,17,19,21,23,-1,25,27,29,31,33,35,-1,37,-1,39,-1,-1,-1,-1,-1,-1,41,43,45,47,-1,-1,-1,-1,-1,-1,-1,-1,-1,-1,-1,-1,-1,-1,-1,-1],"loss_changes":[1.7396335E6,2.0834822E6,2.3372435E6,1.8471416E6,5.443754E6,2.3640158E5,1.730405E5,1.4521191E6,6.1927625E5,2.6505165E6,2.5889655E6,2.2538555E5,0E0,2.414261E5,2.869375E5,1.9730689E6,7.48908E5,2.831091E2,3.5895425E5,0E0,3.970763E5,0E0,5.451598E4,0E0,0E0,0E0,0E0,0E0,0E0,6.88251E6,4.13709E6,3.7885875E5,3.219065E5,0E0,0E0,0E0,0E0,0E0,0E0,0E0,0E0,0E0,0E0,0E0,0E0,0E0,0E0,0E0,0E0],"parents":[2147483647,0,0,1,1,2,2,3,3,4,4,5,5,6,6,7,7,8,8,9,9,10,10,11,11,13,13,14,14,15,15,16,16,17,17,18,18,20,20,22,22,29,29,30,30,31,31,32,32],"right_children":[2,4,6,8,10,12,14,16,18,20,22,24,-1,26,28,30,32,34,36,-1,38,-1,40,-1,-1,-1,-1,-1,-1,42,44,46,48,-1,-1,-1,-1,-1,-1,-1,-1,-1,-1,-1,-1,-1,-1,-1,-1],"split_conditions":[1.9365606E0,1.912713E0,5E-1,1.9053762E0,2.775E3,2.105997E0,6.339327E-1,4.275E3,6.339327E-1,1.9239254E0,2.825E3,1.9562814E0,-1.375191E2,1.623E3,3.8E3,2.94E3,5E-1,1.84E3,9.1443825E-1,-4.9783112E2,1.85E3,4.0133923E2,4.075E3,-5.460927E1,7.543272E1,1.3879922E2,-2.3047852E1,2.7496548E2,4.3292286E1,2.6665E3,1.8545871E0,9.1443825E-1,4.744E3,3.8989747E0,-1.3576905E0,1.504292E1,2.2835378E2,3.470303E1,-1.4454385E2,-5.1713577E1,1.686416E1,1.8897926E0,2.5137924E2,-2.2836833E2,4.1089973E1,7.448614E1,-9.423091E1,6.555264E1,2.701266E2],"split_indices":[1,1,6,1,0,1,3,0,2,1,0,1,0,0,0,0,5,0,4,0,0,0,0,0,0,0,0,0,0,0,1,4,0,0,0,0,0,0,0,0,0,0,0,0,0,0,0,0,0],"split_type":[0,0,0,0,0,0,0,0,0,0,0,0,0,0,0,0,0,0,0,0,0,0,0,0,0,0,0,0,0,0,0,0,0,0,0,0,0,0,0,0,0,0,0,0,0,0,0,0,0],"sum_hessian":[2.118E3,2.107E3,1.1E1,2.096E3,1.1E1,4E0,7E0,2.089E3,7E0,7E0,4E0,3E0,1E0,2E0,5E0,2.082E3,7E0,2E0,5E0,2E0,5E0,1E0,3E0,2E0,1E0,1E0,1E0,4E0,1E0,2.063E3,1.9E1,3E0,4E0,1E0,1E0,1E0,4E0,1E0,4E0,2E0,1E0,2.054E3,9E0,9E0,1E1,2E0,1E0,2E0,2E0],"tree_param":{"num_deleted":"0","num_feature":"10","num_nodes":"49","size_leaf_vector":"0"}},{"base_weights":[7.7363024E0,-1.3165467E1,3.2508774E1,-2.3332174E0,-1.4386452E2,8.229455E1,-5.499453E0,-6.5163493E0,4.388022E2,6.1301003E1,-2.565212E2,-1.1821945E1,1.7736824E2,-1.5729596E1,4.5531528E2,2.8247545E0,-1.8656656E2,-6.8505044E0,8.85825E2,1.2357017E2,-4.0547568E2,-5.1534595E2,-1.6026791E2,7.484001E1,-2.6056317E2,3.972495E2,-9.350783E0,-8.191917E0,-1.0237306E3,1.1371279E3,2.8995703E2,-2.9160507E0,6.371888E2,-8.179187E2,-1.169139E2,-9.3771484E1,1.1132764E2,1.2458218E3,-2.7708093E2,2.6180992E1,4.9253183E2,9.634943E1,-6.048672E2,-1.129303E2,-6.514125E2,-2.5534857E2,2.2729771E2,-1.3574976E1,1.861842E2,4.43892E1,-3.7603003E2,3.134869E2,2.2454175E3,-3.486284E2,1.3317747E2,5.4496937E1,-7.131803E1,-1.3275497E3,-5.613672E1,-4.3005942E2,4.9774506E2,-1.526904E1,1.3300197E2,2.199284E3,1.6701642E2,-3.2370392E2,2.1575E2,-2.1388062E1,-1.5546088E2,1.3857141E2,2.8420044E1,2.1925505E2,-1.8516432E2,5.329638E2,1.4518604E2,-7.3622485E2,-1.7107593E2,-2.3335422E2,1.8438269E2,-2.731716E2,-7.591064E2,-1.5388227E1,-3.9644385E2,-4.0522635E2,1.1192594E3,-4.6483765E2,1.3129593E1,4.1368204E2,5.2187743E0,-4.0524695E2,1.7932423E2,-4.2802875E2,8.2595984E2,1.2135031E2,9.664624E2,-6.786966E2,-8.36458E1,9.3513025E2,-1.9845173E1,9.278516E-1,8.516764E2,-1.1664774E3,-4.6062237E1,-9.68457E1,-5.482434E2,5.912598E2,1.1362891E2],"categories":[],"categories_nodes":[],"categories_segments":[],"categories_sizes":[],"default_left":[1,1,1,1,1,1,1,1,1,1,1,1,1,1,1,1,1,1,1,1,1,1,1,1,1,1,1,1,1,0,1,1,1,0,1,1,1,0,0,1,1,0,1,1,1,1,1,1,1,1,1,1,0,1,1,1,1,0,0,1,1,0,0,0,0,0,0,0,0,0,0,0,0,0,0,0,0,0,0,0,0,0,0,0,0,0,0,0,0,0,0,0,0,0,0,0,0,0,0,0,0,0,0,0,0,0,0],"id":18,"left_children":[1,3,5,7,9,11,13,15,17,19,21,23,25,27,29,31,33,35,37,39,41,43,45,47,49,51,53,55,57,-1,59,61,63,-1,65,67,69,-1,-1,71,73,-1,75,77,79,81,83,85,87,89,91,93,-1,95,97,99,101,-1,-1,103,105,-1,-1,-1,-1,-1,-1,-1,-1,-1,-1,-1,-1,-1,-1,-1,-1,-1,-1,-1,-1,-1,-1,-1,-1,-1,-1,-1,-1,-1,-1,-1,-1,-1,-1,-1,-1,-1,-1,-1,-1,-1,-1,-1,-1,-1,-1],"loss_changes":[1.0976219E6,1.6277938E6,1.8359536E6,1.9644425E6,2.0496929E6,3.760258E6,2.6046865E6,1.7732155E6,1.9982376E6,9.802101E5,1.3374322E6,4.589457E6,8.584422E6,4.094527E6,1.0232015E6,3.6545438E6,2.191092E6,7.207231E4,2.4384048E6,1.02915825E6,4.5851725E5,7.477655E5,1.6425899E6,1.5579578E6,1.9533458E6,1.4157594E7,5.559087E6,2.1289588E6,1.1013692E6,0E0,1.8597786E6,1.6726298E6,6.24277E6,0E0,3.3718345E6,1.4536152E4,2.8379414E3,0E0,0E0,1.0199254E6,6.884375E3,0E0,4.4995125E4,2.2204445E5,2.407105E5,1.178904E6,5.531239E6,1.0786222E6,2.8796885E6,1.0434173E6,2.853612E6,1.1550544E7,0E0,2.9169492E6,9.95863E6,1.1529338E7,7.358915E6,0E0,0E0,6.5046562E4,2.561005E5,0E0,0E0,0E0,0E0,0E0,0E0,0E0,0E0,0E0,0E0,0E0,0E0,0E0,0E0,0E0,0E0,0E0,0E0,0E0,0E0,0E0,0E0,0E0,0E0,0E0,0E0,0E0,0E0,0E0,0E0,0E0,0E0,0E0,0E0,0E0,0E0,0E0,0E0,0E0,0E0,0E0,0E0,0E0,0E0,0E0,0E0],"parents":[2147483647,0,0,1,1,2,2,3,3,4,4,5,5,6,6,7,7,8,8,9,9,10,10,11,11,12,12,13,13,14,14,15,15,16,16,17,17,18,18,19,19,20,20,21,21,22,22,23,23,24,24,25,25,26,26,27,27,28,28,30,30,31,31,32,32,34,34,35,35,36,36,39,39,40,40,42,42,43,43,44,44,45,45,46,46,47,47,48,48,49,49,50,50,51,51,53,53,54,54,55,55,56,56,59,59,60,60],"right_children":[2,4,6,8,10,12,14,16,18,20,22,24,26,28,30,32,34,36,38,40,42,44,46,48,50,52,54,56,58,-1,60,62,64,-1,66,68,70,-1,-1,72,74,-1,76,78,80,82,84,86,88,90,92,94,-1,96,98,100,102,-1,-1,104,106,-1,-1,-1,-1,-1,-1,-1,-1,-1,-1,-1,-1,-1,-1,-1,-1,-1,-1,-1,-1,-1,-1,-1,-1,-1,-1,-1,-1,-1,-1,-1,-1,-1,-1,-1,-1,-1,-1,-1,-1,-1,-1,-1,-1,-1,-1],"split_conditions":[1.6771438E0,1.6697373E0,5E-1,1.6671894E0,4.78E2,7.99E2,1.9228787E0,9.17E2,6E2,6.339327E-1,5.58E2,8.05509E-1,1.174E3,1.9152036E0,1.9256005E0,8.95E2,9.555E2,5E-1,7.75E2,5E-1,3.525E2,2.6329452E-1,6.339327E-1,4.675E2,1.7115991E0,1.1615E3,1.3545E3,9.65E2,2.825E3,3.411384E2,1.9332625E0,7.49E2,1.5028006E0,-2.4537563E2,5E-1,5.65E2,5.45E2,3.7374655E2,-8.312428E1,8.05509E-1,1.6747134E0,2.8904829E1,4.075E2,5.2E2,6.339327E-1,6.995E2,9.575E2,6.339327E-1,6.19E2,5.05E2,7.62E2,9.1443825E-1,6.7362524E2,1.7661057E0,1.4785E3,9.305E2,9.815E2,-3.9826492E2,-1.6841017E1,2.2E3,3.8E3,-4.5807123E0,3.9900593E1,6.597852E2,5.0104927E1,-9.711118E1,6.4725006E1,-6.4164186E0,-4.6638264E1,4.1571426E1,8.526013E0,6.577652E1,-5.5549297E1,1.5988914E2,4.3555813E1,-2.2086746E2,-5.132278E1,-7.000627E1,5.5314808E1,-8.1951485E1,-2.2773192E2,-4.6164684E0,-1.1893316E2,-1.2156791E2,3.3577783E2,-1.394513E2,3.938878E0,1.24104614E2,1.5656323E0,-1.2157409E2,5.379727E1,-1.2840863E2,2.4778796E2,3.6405094E1,2.8993872E2,-2.03609E2,-2.509374E1,2.805391E2,-5.9535522E0,2.783555E-1,2.5550293E2,-3.4994324E2,-1.3818671E1,-2.9053713E1,-1.6447302E2,1.7737796E2,3.4088673E1],"split_indices":[1,1,6,1,0,0,1,0,0,3,0,2,0,1,1,0,0,8,0,6,0,3,3,0,1,0,0,0,0,0,1,0,1,0,8,0,0,0,0,4,1,0,0,0,2,0,0,4,0,0,0,2,0,1,0,0,0,0,0,0,0,0,0,0,0,0,0,0,0,0,0,0,0,0,0,0,0,0,0,0,0,0,0,0,0,0,0,0,0,0,0,0,0,0,0,0,0,0,0,0,0,0,0,0,0,0,0],"split_type":[0,0,0,0,0,0,0,0,0,0,0,0,0,0,0,0,0,0,0,0,0,0,0,0,0,0,0,0,0,0,0,0,0,0,0,0,0,0,0,0,0,0,0,0,0,0,0,0,0,0,0,0,0,0,0,0,0,0,0,0,0,0,0,0,0,0,0,0,0,0,0,0,0,0,0,0,0,0,0,0,0,0,0,0,0,0,0,0,0,0,0,0,0,0,0,0,0,0,0,0,0,0,0,0,0,0,0],"sum_hessian":[2.118E3,1.149E3,9.69E2,1.062E3,8.7E1,4.19E2,5.5E2,1.053E3,9E0,3.1E1,5.6E1,2.11E2,2.08E2,5.39E2,1.1E1,1.002E3,5.1E1,5E0,4E0,2.8E1,3E0,1.4E1,4.2E1,1.57E2,5.4E1,9.5E1,1.13E2,5.36E2,3E0,1E0,1E1,9.94E2,8E0,4E0,4.7E1,3E0,2E0,3E0,1E0,2.3E1,5E0,1E0,2E0,4E0,1E1,3.4E1,8E0,8.8E1,6.9E1,1.5E1,3.9E1,9.2E1,3E0,3.3E1,8E1,2.69E2,2.67E2,2E0,1E0,2E0,8E0,9.12E2,8.2E1,1E0,7E0,2.9E1,1.8E1,2E0,1E0,1E0,1E0,1.2E1,1.1E1,4E0,1E0,1E0,1E0,3E0,1E0,3E0,7E0,1.3E1,2.1E1,5E0,3E0,4E0,8.4E1,3E1,3.9E1,3E0,1.2E1,3.8E1,1E0,7.2E1,2E1,1.4E1,1.9E1,1.2E1,6.8E1,2.53E2,1.6E1,5E0,2.62E2,1E0,1E0,6E0,2E0],"tree_param":{"num_deleted":"0","num_feature":"10","num_nodes":"107","size_leaf_vector":"0"}},{"base_weights":[6.083362E0,3.725562E0,2.3065524E2,6.488659E0,-5.210991E2,3.5941263E2,6.922399E1,4.6731706E0,7.6188654E2,-7.29781E2,7.8285986E2,9.266727E1,7.1432263E2,-3.8022226E2,3.803679E2,8.140916E0,-2.5981918E2,-4.2698764E2,1.6967985E3,-1.4639697E3,-4.8554117E2,-1.431729E2,3.6430066E2,8.403716E2,1.0506348E2,4.7797284E2,9.090365E1,2.9769466E0,1.6643037E2,-5.9287384E2,2.785215E2,-5.9276514E2,-4.771631E1,-2.0030847E2,-5.9477277E2,1.529458E2,-2.5543903E2,6.485207E2,-2.4417969E2,1.7081999E2,6.2580145E2,4.6774096E0,-1.1271229E3,-9.217328E1,3.5260068E2,-2.4143452E2,-9.580637E2,-4.1333203E2,4.7819254E2,-2.4811523E2,-7.0607275E2,4.953076E1,2.0669922E2],"categories":[],"categories_nodes":[],"categories_segments":[],"categories_sizes":[],"default_left":[1,1,1,1,1,1,1,1,1,1,0,1,1,0,1,1,1,1,0,0,1,1,1,0,0,1,0,1,1,1,1,0,0,0,1,0,0,0,0,1,0,0,0,0,0,0,0,0,0,0,0,0,0],"id":19,"left_children":[1,3,5,7,9,11,13,15,17,19,-1,21,23,-1,25,27,29,31,-1,-1,33,35,37,-1,-1,39,-1,41,43,45,47,-1,-1,-1,49,-1,-1,-1,-1,51,-1,-1,-1,-1,-1,-1,-1,-1,-1,-1,-1,-1,-1],"loss_changes":[1.1211419E6,3.045778E6,4.3240025E5,2.8599562E6,3.5645548E6,1.0698529E6,1.6828914E6,1.9135439E6,6.281975E6,1.0823635E6,0E0,5.646545E5,2.9569E5,0E0,1.543225E5,1.6817176E6,5.0061435E6,1.6033938E5,0E0,0E0,1.6127E5,2.0528881E5,8.501246E5,0E0,0E0,1.20130375E5,0E0,3.837128E6,3.161881E6,1.9505055E6,1.7172262E6,0E0,0E0,0E0,5.63105E4,0E0,0E0,0E0,0E0,2.8173203E3,0E0,0E0,0E0,0E0,0E0,0E0,0E0,0E0,0E0,0E0,0E0,0E0,0E0],"parents":[2147483647,0,0,1,1,2,2,3,3,4,4,5,5,6,6,7,7,8,8,9,9,11,11,12,12,14,14,15,15,16,16,17,17,20,20,21,21,22,22,25,25,27,27,28,28,29,29,30,30,34,34,39,39],"right_children":[2,4,6,8,10,12,14,16,18,20,-1,22,24,-1,26,28,30,32,-1,-1,34,36,38,-1,-1,40,-1,42,44,46,48,-1,-1,-1,50,-1,-1,-1,-1,52,-1,-1,-1,-1,-1,-1,-1,-1,-1,-1,-1,-1,-1],"split_conditions":[3.27E3,2.94E3,1.8680981E0,2.8785E3,5E-1,1.8481879E0,1.898114E0,1.053545E0,9.929034E-1,2.985E3,2.3485797E2,4.125E3,4.1825E3,-1.1406668E2,1.9233712E0,1.8498574E0,1.8753874E0,1.8661649E0,5.0903955E2,-4.3919095E2,3.08E3,3.545E3,9.929034E-1,2.5211148E2,3.1519045E1,9.1443825E-1,2.7271095E1,2.775E3,9.1443825E-1,1.8505397E0,8.05509E-1,-1.7782954E2,-1.4314893E1,-6.0092545E1,1.813689E0,4.5883743E1,-7.6631714E1,1.9455621E2,-7.325391E1,4.25E3,1.8774045E2,1.4032229E0,-3.381369E2,-2.7651985E1,1.05780205E2,-7.243036E1,-2.8741913E2,-1.2399961E2,1.4345776E2,-7.443457E1,-2.1182184E2,1.4859229E1,6.200977E1],"split_indices":[0,0,1,0,9,1,1,2,2,0,0,0,0,0,1,1,1,1,0,0,0,0,2,0,0,4,0,0,2,1,3,0,0,0,1,0,0,0,0,0,0,0,0,0,0,0,0,0,0,0,0,0,0],"split_type":[0,0,0,0,0,0,0,0,0,0,0,0,0,0,0,0,0,0,0,0,0,0,0,0,0,0,0,0,0,0,0,0,0,0,0,0,0,0,0,0,0,0,0,0,0,0,0,0,0,0,0,0,0],"sum_hessian":[2.118E3,2.097E3,2.1E1,2.087E3,1E1,1.1E1,1E1,2.083E3,4E0,9E0,1E0,7E0,4E0,4E0,6E0,2.057E3,2.6E1,2E0,2E0,1E0,8E0,4E0,3E0,3E0,1E0,4E0,2E0,1.993E3,6.4E1,1.6E1,1E1,1E0,1E0,3E0,5E0,1E0,3E0,2E0,1E0,2E0,2E0,1.991E3,2E0,2.7E1,3.7E1,9E0,7E0,2E0,8E0,2E0,3E0,1E0,1E0],"tree_param":{"num_deleted":"0","num_feature":"10","num_nodes":"53","size_leaf_vector":"0"}},{"base_weights":[4.125805E0,2.0864862E2,1.8806212E0,6.607243E1,5.2509814E2,-3.8756578E0,7.939877E1,2.2749524E2,-7.6306573E2,5.6523413E2,1.4214111E2,-1.4447966E0,-6.7944867E2,5.587207E2,2.6857774E0,-7.6453896E1,5.0300748E2,-2.918154E0,1.4328545E3,-1.0027745E3,8.591056E1,3.9732144E0,1.5883984E3,-3.9975308E2,6.911893E1,-2.4961281E2,1.5910822E2,8.350558E2,1.3676733E2,7.8082037E0,-7.440164E1,-2.7585522E2,-1.3954355E3,1.220145E3,-1.0912792E3,1.928802E2,-7.529792E2,2.1221982E3,1.6926595E2,-6.8312195E1,-9.108299E2,1.8819777E3,1.7645144E1,-4.471808E1,-3.7130325E2,2.4901643E2,-5.5308228E1,-3.0819336E1,1.8636884E2,4.3223467E-1,5.9505524E2,-7.953621E2,-3.8492474E1,4.6055896E2,-2.7398184E2,2.054873E2,4.841162E1,-8.396122E2,4.222893E2,-1.8027212E3,-1.935291E2,-3.417769E2,6.2389095E1],"categories":[],"categories_nodes":[],"categories_segments":[],"categories_sizes":[],"default_left":[1,1,1,1,1,1,1,1,0,0,0,1,1,1,1,1,1,1,0,1,1,1,1,1,1,1,1,0,1,1,1,0,0,0,0,1,0,0,1,1,1,0,1,0,0,0,0,0,0,0,0,0,0,0,0,0,0,0,0,0,0,0,0],"id":20,"left_children":[1,3,5,7,9,11,13,15,-1,-1,-1,17,19,21,23,25,27,29,-1,31,33,35,37,39,41,43,45,-1,47,49,51,-1,-1,-1,-1,53,-1,-1,55,57,59,-1,61,-1,-1,-1,-1,-1,-1,-1,-1,-1,-1,-1,-1,-1,-1,-1,-1,-1,-1,-1,-1],"loss_changes":[9.726341E5,1.00302325E6,9.360229E5,2.4489045E6,2.7249625E4,3.2062822E6,5.3301815E6,1.2945825E6,0E0,0E0,0E0,4.1186512E6,1.8183715E6,1.1417914E7,3.396276E6,3.6603284E5,8.586671E5,1.492691E6,0E0,1.0422265E6,5.337146E6,2.1471452E6,4.94351E6,2.9868305E6,1.0138096E7,1.0806472E5,9.088387E4,0E0,4.7306516E4,7.3329995E6,6.5452135E6,0E0,0E0,0E0,0E0,1.6258135E6,0E0,0E0,3.1845469E3,4.8953705E6,4.1294015E6,0E0,1.7420932E6,0E0,0E0,0E0,0E0,0E0,0E0,0E0,0E0,0E0,0E0,0E0,0E0,0E0,0E0,0E0,0E0,0E0,0E0,0E0,0E0],"parents":[2147483647,0,0,1,1,2,2,3,3,4,4,5,5,6,6,7,7,11,11,12,12,13,13,14,14,15,15,16,16,17,17,19,19,20,20,21,21,22,22,23,23,24,24,25,25,26,26,28,28,29,29,30,30,35,35,38,38,39,39,40,40,42,42],"right_children":[2,4,6,8,10,12,14,16,-1,-1,-1,18,20,22,24,26,28,30,-1,32,34,36,38,40,42,44,46,-1,48,50,52,-1,-1,-1,-1,54,-1,-1,56,58,60,-1,62,-1,-1,-1,-1,-1,-1,-1,-1,-1,-1,-1,-1,-1,-1,-1,-1,-1,-1,-1,-1],"split_conditions":[1.25E1,1.7026663E0,1.765E3,1.6746755E0,9.929034E-1,1.729E3,1.8255E3,1.6162534E0,-2.2891972E2,1.6957025E2,4.2642334E1,1.71E3,9.929034E-1,8.05509E-1,1.971E3,5E-1,1.6390188E0,1.1025E3,4.2985635E2,8.5020554E-1,1.7940829E0,9.1443825E-1,9.1443825E-1,8.05509E-1,1.994E3,1.5554729E0,1.6051023E0,2.5051674E2,1.6523043E0,1.0965E3,1.1365E3,-8.275657E1,-4.1863068E2,3.6604352E2,-3.2738376E2,5E-1,-2.2589377E2,6.366595E2,1.8704588E0,5E-1,1.8308846E0,5.645933E2,1.7086513E0,-1.3415424E1,-1.1139098E2,7.470493E1,-1.6592468E1,-9.245801E0,5.5910652E1,1.2967041E-1,1.7851657E2,-2.3860864E2,-1.1547743E1,1.381677E2,-8.219456E1,6.1646194E1,1.4523487E1,-2.5188367E2,1.266868E2,-5.408164E2,-5.805873E1,-1.0253307E2,1.871673E1],"split_indices":[0,1,0,1,2,0,0,1,0,0,0,0,2,3,0,6,1,0,0,2,1,4,3,3,0,1,1,0,1,0,0,0,0,0,0,8,0,0,1,8,1,0,1,0,0,0,0,0,0,0,0,0,0,0,0,0,0,0,0,0,0,0,0],"split_type":[0,0,0,0,0,0,0,0,0,0,0,0,0,0,0,0,0,0,0,0,0,0,0,0,0,0,0,0,0,0,0,0,0,0,0,0,0,0,0,0,0,0,0,0,0,0,0,0,0,0,0,0,0,0,0,0,0,0,0,0,0,0,0],"sum_hessian":[2.118E3,2.2E1,2.096E3,1.6E1,6E0,1.952E3,1.44E2,1.4E1,2E0,5E0,1E0,1.946E3,6E0,1.9E1,1.25E2,7E0,7E0,1.945E3,1E0,4E0,2E0,1.3E1,6E0,1.7E1,1.08E2,4E0,3E0,3E0,4E0,1.692E3,2.53E2,2E0,2E0,1E0,1E0,1.1E1,2E0,4E0,2E0,1.1E1,6E0,2E0,1.06E2,2E0,2E0,2E0,1E0,1E0,3E0,1.672E3,2E1,1.1E1,2.42E2,7E0,4E0,1E0,1E0,4E0,7E0,2E0,4E0,1.1E1,9.5E1],"tree_param":{"num_deleted":"0","num_feature":"10","num_nodes":"63","size_leaf_vector":"0"}},{"base_weights":[3.0811107E0,-1.2038861E1,3.2415035E1,-5.0662265E0,-2.2172511E2,1.187349E1,2.5447318E2,-1.33284645E1,2.600535E2,9.8728836E1,-5.325388E2,2.5279594E1,-3.165171E2,8.2989545E2,1.995331E2,-4.440089E0,-3.5849384E2,4.3100235E2,-1.8898975E2,-3.279299E1,9.86472E2,-7.4884344E2,3.9592657E2,1.6941185E1,1.7790367E3,-6.163959E2,8.470785E1,1.1012655E2,1.2730326E3,-3.110086E2,2.772291E2,-1.3278731E1,5.8426105E2,-1.0391865E2,-1.4867623E3,-1.1178247E2,6.3345966E2,1.06705956E2,-1.1116455E3,9.3991554E1,-1.284242E3,3.0751514E2,-8.246142E2,-1.0134961E2,5.45583E2,6.2680233E1,-5.7407524E1,2.3226196E3,3.4593555E2,-1.8591281E2,-8.8272766E2,-4.0137866E2,2.9133432E2,4.578996E1,-9.209362E2,6.1437164E2,1.2905223E2,-1.7363821E1,8.468033E2,1.0922989E2,1.382996E3,-1.0664965E3,1.517068E2,5.7960254E2,-3.921214E2,1.4073923E3,3.2304465E2,5.1413165E2,-5.941693E1,-1.501415E3,-1.6605322E2,6.8214514E2,-9.568091E1,-9.13085E2,-7.789844E1,2.1913769E1,2.8856888E2,-4.0513382E1,-6.187804E2,-3.7744708E2,1.952819E2,-1.3356849E3,-4.3363486E2,3.1833643E2,-7.473958E2,-4.4703224E1,5.69105E2,-8.6851364E1,3.544983E2,3.279349E2,1.650807E3,-8.7529816E2,2.1387573E2],"categories":[],"categories_nodes":[],"categories_segments":[],"categories_sizes":[],"default_left":[1,1,1,1,1,1,1,1,1,1,1,1,1,1,1,1,1,1,1,1,0,1,1,1,1,1,1,0,0,1,1,1,1,1,0,1,1,1,1,1,0,0,1,0,0,1,1,0,0,1,1,1,1,1,0,1,1,0,0,0,0,0,0,0,0,0,0,0,0,0,0,0,0,0,0,0,0,0,0,0,0,0,0,0,0,0,0,0,0,0,0,0,0],"id":21,"left_children":[1,3,5,7,9,11,13,15,17,19,21,23,25,27,29,31,33,35,37,39,-1,41,43,45,47,49,51,-1,-1,53,55,57,59,61,-1,63,65,67,69,71,-1,-1,73,-1,-1,75,77,-1,-1,79,81,83,85,87,-1,89,91,-1,-1,-1,-1,-1,-1,-1,-1,-1,-1,-1,-1,-1,-1,-1,-1,-1,-1,-1,-1,-1,-1,-1,-1,-1,-1,-1,-1,-1,-1,-1,-1,-1,-1,-1,-1],"loss_changes":[9.402264E5,2.0443064E6,3.2857605E6,2.9715698E6,4.534644E6,2.9180128E6,1.7628468E6,4.032775E6,3.2287555E6,2.7177742E6,4.915608E6,9.270435E6,3.1805038E6,1.4545868E6,2.3472425E6,6.6836165E6,9.32406E6,3.367533E6,3.3925232E6,3.45266E6,0E0,1.774362E6,4.2739756E5,2.1596035E6,1.533551E6,1.5556595E6,1.3221955E6,0E0,0E0,1.78314E6,2.4185502E6,4.459297E6,7.057991E6,7.0514575E6,0E0,1.9716739E6,4.830636E6,7.073755E5,8.5637425E5,2.2963988E6,0E0,0E0,1.117999E6,0E0,0E0,3.612688E6,2.2700378E6,0E0,0E0,5.847915E5,1.251579E6,1.2340585E6,8.655131E5,2.7647356E5,0E0,3.91174E6,3.2541358E6,0E0,0E0,0E0,0E0,0E0,0E0,0E0,0E0,0E0,0E0,0E0,0E0,0E0,0E0,0E0,0E0,0E0,0E0,0E0,0E0,0E0,0E0,0E0,0E0,0E0,0E0,0E0,0E0,0E0,0E0,0E0,0E0,0E0,0E0,0E0,0E0],"parents":[2147483647,0,0,1,1,2,2,3,3,4,4,5,5,6,6,7,7,8,8,9,9,10,10,11,11,12,12,13,13,14,14,15,15,16,16,17,17,18,18,19,19,21,21,22,22,23,23,24,24,25,25,26,26,29,29,30,30,31,31,32,32,33,33,35,35,36,36,37,37,38,38,39,39,42,42,45,45,46,46,49,49,50,50,51,51,52,52,53,53,55,55,56,56],"right_children":[2,4,6,8,10,12,14,16,18,20,22,24,26,28,30,32,34,36,38,40,-1,42,44,46,48,50,52,-1,-1,54,56,58,60,62,-1,64,66,68,70,72,-1,-1,74,-1,-1,76,78,-1,-1,80,82,84,86,88,-1,90,92,-1,-1,-1,-1,-1,-1,-1,-1,-1,-1,-1,-1,-1,-1,-1,-1,-1,-1,-1,-1,-1,-1,-1,-1,-1,-1,-1,-1,-1,-1,-1,-1,-1,-1,-1,-1],"split_conditions":[5E-1,9.929034E-1,9.929034E-1,1.765E3,5E-1,1.8426347E0,1.7751064E0,1.4785E3,2.5355E3,2.7665E3,1.9325887E0,1.8394771E0,1.891783E0,1.0025E3,1.7924125E0,8.05509E-1,8.05509E-1,1.7440953E0,8.05509E-1,5E-1,2.9594162E2,1.7365323E0,6.339327E-1,8.05509E-1,2.9E3,8.05509E-1,1.45E3,3.3037968E1,3.819098E2,1.7895936E0,1.4065E3,1.431E3,1.254E3,1.505E3,-4.4602872E2,1.6908917E0,6.339327E-1,8.05509E-1,2.895E3,1.8316774E0,-3.852726E2,9.225455E1,3.72E3,-3.0404884E1,1.6367491E2,1.6909857E0,2.164E3,6.967859E2,1.0378067E2,1.8661821E0,1.847E3,8.73E2,9.1443825E-1,1.7872856E0,-2.7628088E2,1.35E3,1.5075E3,-5.2091465E0,2.54041E2,3.2768967E1,4.148988E2,-3.1994894E2,4.5512043E1,1.7388077E2,-1.1763642E2,4.222177E2,9.69134E1,1.542395E2,-1.782508E1,-4.5042453E2,-4.9815968E1,2.0464355E2,-2.8704273E1,-2.739255E2,-2.3369532E1,6.574131E0,8.657066E1,-1.2154016E1,-1.8563412E2,-1.1323413E2,5.8584576E1,-4.007055E2,-1.3009047E2,9.550093E1,-2.2421875E2,-1.3410968E1,1.707315E2,-2.605541E1,1.06349495E2,9.838048E1,4.9524213E2,-2.6258945E2,6.416272E1],"split_indices":[5,2,2,0,6,1,1,0,0,0,1,1,1,0,1,3,3,1,3,9,0,1,3,4,0,2,0,0,0,1,0,0,0,0,0,1,3,4,0,1,0,0,0,0,0,1,0,0,0,1,0,0,4,1,0,0,0,0,0,0,0,0,0,0,0,0,0,0,0,0,0,0,0,0,0,0,0,0,0,0,0,0,0,0,0,0,0,0,0,0,0,0,0],"split_type":[0,0,0,0,0,0,0,0,0,0,0,0,0,0,0,0,0,0,0,0,0,0,0,0,0,0,0,0,0,0,0,0,0,0,0,0,0,0,0,0,0,0,0,0,0,0,0,0,0,0,0,0,0,0,0,0,0,0,0,0,0,0,0,0,0,0,0,0,0,0,0,0,0,0,0,0,0,0,0,0,0,0,0,0,0,0,0,0,0,0,0,0,0],"sum_hessian":[2.118E3,1.398E3,7.2E2,1.354E3,4.4E1,6.6E2,6E1,1.314E3,4E1,2.2E1,2.2E1,6.35E2,2.5E1,4E0,5.6E1,1.282E3,3.2E1,2.9E1,1.1E1,2E1,2E0,1.8E1,4E0,6.33E2,2E0,1.4E1,1.1E1,2E0,2E0,7E0,4.9E1,1.264E3,1.8E1,2.7E1,5E0,8E0,2.1E1,9E0,2E0,1.9E1,1E0,1E0,1.7E1,1E0,3E0,3.92E2,2.41E2,1E0,1E0,6E0,8E0,3E0,8E0,5E0,2E0,1.4E1,3.5E1,1.259E3,5E0,1.2E1,6E0,5E0,2.2E1,2E0,6E0,5E0,1.6E1,2E0,7E0,1E0,1E0,4E0,1.5E1,1.5E1,2E0,3.33E2,5.9E1,2.35E2,6E0,4E0,2E0,3E0,5E0,1E0,2E0,4E0,4E0,4E0,1E0,1.2E1,2E0,2E0,3.3E1],"tree_param":{"num_deleted":"0","num_feature":"10","num_nodes":"93","size_leaf_vector":"0"}},{"base_weights":[2.6077588E0,1.21115595E-1,1.0550263E2,3.2669895E0,-2.800037E2,5.1306256E2,-9.213916E0,4.392761E0,-7.6559845E2,-1.9349426E2,-1.0916056E3,1.1975007E3,-4.9116524E1,-1.4407715E2,4.097835E2,-2.4444482E0,9.021367E1,-1.2762029E3,1.27805176E2,2.2974992E2,-3.665702E2,2.878335E2,1.3529592E3,-2.1427266E2,4.7091016E2,2.279056E2,-3.6006293E2,1.1183803E2,8.287422E2,1.7700404E0,-3.615227E2,8.804967E2,3.9844707E1,-2.6718713E2,6.692495E2,-5.8090826E2,-2.4671516E2,-2.6183365E2,1.1766113E1,-4.203921E2,3.250592E2,-9.068699E2,-1.1733597E2,6.7566504E2,-9.474398E1,4.340363E0,-4.7802917E2,1.6379959E2,-7.378073E2,-5.995587E2,2.1844526E3,4.1009467E2,-4.2073456E1,2.6138794E2,-5.305081E2,8.769404E2,3.0770572E2,-8.2073E1,-4.6079962E2,1.1617241E3,1.25220314E2,-3.7947998E1,-1.0730647E3,-1.0894348E3,2.9916433E1,-1.6516992E2,1.2869287E2],"categories":[],"categories_nodes":[],"categories_segments":[],"categories_sizes":[],"default_left":[1,1,1,1,1,1,1,1,1,1,0,1,1,1,1,1,1,0,0,1,1,0,0,1,0,1,1,1,0,1,1,1,1,1,1,0,1,0,0,0,1,1,1,0,1,0,0,0,0,0,0,0,0,0,0,0,0,0,0,0,0,0,0,0,0,0,0],"id":22,"left_children":[1,3,5,7,9,11,13,15,17,19,-1,21,23,25,27,29,31,-1,-1,33,35,-1,-1,37,-1,39,41,43,-1,45,47,49,51,53,55,-1,57,-1,-1,-1,59,61,63,-1,65,-1,-1,-1,-1,-1,-1,-1,-1,-1,-1,-1,-1,-1,-1,-1,-1,-1,-1,-1,-1,-1,-1],"loss_changes":[5.4216056E5,1.825076E6,2.3424208E6,1.7760446E6,1.4036384E6,4.291362E6,2.3193342E6,1.2007631E6,1.5316328E6,1.6957941E6,0E0,3.176505E5,7.021024E5,2.572693E6,1.1555836E6,2.869916E6,5.975583E6,0E0,0E0,1.7076402E6,2.67713E5,0E0,0E0,6.75845E4,0E0,8.924658E5,2.5480875E6,8.7935075E5,0E0,2.3143975E6,4.469608E6,1.8679052E7,4.3544715E6,6.954081E5,3.0517875E4,0E0,3.8514875E5,0E0,0E0,0E0,1.6937086E6,8.257405E5,2.1797505E6,0E0,1.1567069E5,0E0,0E0,0E0,0E0,0E0,0E0,0E0,0E0,0E0,0E0,0E0,0E0,0E0,0E0,0E0,0E0,0E0,0E0,0E0,0E0,0E0,0E0],"parents":[2147483647,0,0,1,1,2,2,3,3,4,4,5,5,6,6,7,7,8,8,9,9,11,11,12,12,13,13,14,14,15,15,16,16,19,19,20,20,23,23,25,25,26,26,27,27,29,29,30,30,31,31,32,32,33,33,34,34,36,36,40,40,41,41,42,42,44,44],"right_children":[2,4,6,8,10,12,14,16,18,20,-1,22,24,26,28,30,32,-1,-1,34,36,-1,-1,38,-1,40,42,44,-1,46,48,50,52,54,56,-1,58,-1,-1,-1,60,62,64,-1,66,-1,-1,-1,-1,-1,-1,-1,-1,-1,-1,-1,-1,-1,-1,-1,-1,-1,-1,-1,-1,-1,-1],"split_conditions":[2.607E3,1.053545E0,1.813165E0,2.5855E3,5E-1,2.9535E3,1.053545E0,1.7995027E0,1.8360277E0,5E-1,-3.274817E2,2.657E3,4.125E3,9.1443825E-1,5E-1,1.7940829E0,1.8031743E0,-3.8286087E2,3.8341553E1,1.9E3,5E-1,8.635005E1,4.058878E2,1.7825842E0,1.4127306E2,1.8155701E0,1.8632473E0,1.8580279E0,2.4862267E2,2.0875E3,9.1443825E-1,8.05509E-1,6.339327E-1,1.425E3,2.0705E3,-1.7427249E2,1.963E3,-7.8550095E1,3.529834E0,-1.2611763E2,1.8257396E0,8.05509E-1,2.775E3,2.0269952E2,1.9417317E0,1.302109E0,-1.4340875E2,4.913988E1,-2.2134221E2,-1.7986761E2,6.553358E2,1.23028404E2,-1.2622037E1,7.841638E1,-1.5915244E2,2.6308215E2,9.231172E1,-2.46219E1,-1.382399E2,3.4851724E2,3.7566097E1,-1.1384399E1,-3.2191943E2,-3.2683044E2,8.974931E0,-4.955098E1,3.8607864E1],"split_indices":[0,2,1,0,9,0,2,1,1,8,0,0,0,4,5,1,1,0,0,0,5,0,0,1,0,1,1,1,0,0,4,3,3,0,0,0,0,0,0,0,1,2,0,0,1,0,0,0,0,0,0,0,0,0,0,0,0,0,0,0,0,0,0,0,0,0,0],"split_type":[0,0,0,0,0,0,0,0,0,0,0,0,0,0,0,0,0,0,0,0,0,0,0,0,0,0,0,0,0,0,0,0,0,0,0,0,0,0,0,0,0,0,0,0,0,0,0,0,0,0,0,0,0,0,0,0,0,0,0,0,0,0,0,0,0,0,0],"sum_hessian":[2.118E3,2.069E3,4.9E1,2.047E3,2.2E1,1E1,3.9E1,2.045E3,2E0,2.1E1,1E0,4E0,6E0,3E1,9E0,1.895E3,1.5E2,1E0,1E0,6E0,1.5E1,1E0,3E0,5E0,1E0,1.1E1,1.9E1,6E0,3E0,1.874E3,2.1E1,8E0,1.42E2,3E0,3E0,4E0,1.1E1,4E0,1E0,1E0,1E1,5E0,1.4E1,1E0,5E0,1.865E3,9E0,9E0,1.2E1,4E0,4E0,2.5E1,1.17E2,1E0,2E0,1E0,2E0,7E0,4E0,1E0,9E0,1E0,4E0,1E0,1.3E1,4E0,1E0],"tree_param":{"num_deleted":"0","num_feature":"10","num_nodes":"67","size_leaf_vector":"0"}},{"base_weights":[1.8937765E0,-8.807128E0,2.609137E1,-1.3651802E1,3.1068106E2,8.657578E1,-4.3461987E1,-5.368074E0,-1.3437619E2,5.6570538E1,1.1633428E3,4.0943436E1,9.72656E2,-3.0332962E2,-4.8202434E-1,-8.321515E0,1.3303922E3,-2.2639284E2,3.2260355E2,4.578121E2,-1.8220126E2,1.4848643E3,-6.1371582E1,2.7916573E1,1.4602504E3,3.3359055E2,1.6499058E3,9.725014E1,-6.245073E2,7.5996376E1,-1.16665726E2,-1.1153559E1,5.386425E2,-2.155265E1,-5.362618E2,1.2509857E3,-9.1105995E1,-5.1305542E1,6.717203E2,-1.0139221E1,-6.950076E2,5.0249905E1,-4.7976788E2,-1.4640137E1,2.2050156E3,7.7820917E2,-5.278897E2,-2.4417603E2,1.9553712E3,-3.0911374E2,8.96085E2,3.977744E2,-6.862489E2,3.3018154E1,4.0843707E2,-1.1626403E3,-8.475799E1,-7.055106E0,-3.3186438E2,8.727235E2,-1.9770662E2,-9.185249E1,1.64127E3,-1.2089116E3,-3.6040942E2,1.7533058E3,3.316704E2,-8.882556E2,2.733056E2,7.6703076E2,1.4523914E2,-1.6306496E2,6.830962E2,-4.7389668E1,1.21083885E2,-2.7147052E2,-1.5938167E3,-1.05461914E2,-6.33545E2,2.3219272E3,-1.21982666E2,6.256077E1,-1.2539402E3,1.4816238E3,-3.7850797E2,-5.335626E2,-1.0299331E3,8.50819E1,-4.8615424E2,5.8517998E1,1.3065231E3,-1.8124544E2,3.2009144E1],"categories":[],"categories_nodes":[],"categories_segments":[],"categories_sizes":[],"default_left":[1,1,1,1,1,1,1,1,1,1,1,1,1,1,1,1,0,1,1,1,1,0,0,1,1,1,1,1,1,1,1,1,1,1,1,1,1,0,1,1,0,1,1,0,0,0,1,0,1,1,1,0,1,1,1,0,1,0,0,0,0,0,0,0,0,0,0,0,0,0,0,0,0,0,0,0,0,0,0,0,0,0,0,0,0,0,0,0,0,0,0,0,0],"id":23,"left_children":[1,3,5,7,9,11,13,15,17,19,21,23,25,27,29,31,-1,33,35,37,39,-1,-1,41,43,45,47,49,51,53,55,57,59,61,63,65,67,-1,69,71,-1,73,75,-1,-1,-1,77,-1,79,81,83,-1,85,87,89,-1,91,-1,-1,-1,-1,-1,-1,-1,-1,-1,-1,-1,-1,-1,-1,-1,-1,-1,-1,-1,-1,-1,-1,-1,-1,-1,-1,-1,-1,-1,-1,-1,-1,-1,-1,-1,-1],"loss_changes":[5.4891544E5,2.2795312E6,2.7382438E6,1.4483481E6,4.700936E6,1.403118E7,3.3840915E6,5.3645575E6,3.983662E6,1.8079071E6,2.059988E6,6.0976205E6,6.807325E6,5.592997E6,2.327993E6,2.104938E6,0E0,4.939384E6,6.259261E6,7.96794E5,1.0517672E6,0E0,0E0,3.7657422E6,3.327624E6,4.2411105E6,5.106066E6,6.769344E6,1.787788E6,2.243972E6,3.3724242E6,1.7708086E6,1.894545E6,5.761771E6,3.231195E6,1.7274335E6,3.7286522E6,0E0,1.39493E5,1.1715244E6,0E0,2.1981732E6,2.816073E6,0E0,0E0,0E0,1.11712125E5,0E0,5.613504E6,4.994798E6,5.785072E6,0E0,6.57411E5,3.852601E6,5.580178E6,0E0,1.1549908E6,0E0,0E0,0E0,0E0,0E0,0E0,0E0,0E0,0E0,0E0,0E0,0E0,0E0,0E0,0E0,0E0,0E0,0E0,0E0,0E0,0E0,0E0,0E0,0E0,0E0,0E0,0E0,0E0,0E0,0E0,0E0,0E0,0E0,0E0,0E0,0E0],"parents":[2147483647,0,0,1,1,2,2,3,3,4,4,5,5,6,6,7,7,8,8,9,9,10,10,11,11,12,12,13,13,14,14,15,15,17,17,18,18,19,19,20,20,23,23,24,24,25,25,26,26,27,27,28,28,29,29,30,30,31,31,32,32,33,33,34,34,35,35,36,36,38,38,39,39,41,41,42,42,46,46,48,48,49,49,50,50,52,52,53,53,54,54,56,56],"right_children":[2,4,6,8,10,12,14,16,18,20,22,24,26,28,30,32,-1,34,36,38,40,-1,-1,42,44,46,48,50,52,54,56,58,60,62,64,66,68,-1,70,72,-1,74,76,-1,-1,-1,78,-1,80,82,84,-1,86,88,90,-1,92,-1,-1,-1,-1,-1,-1,-1,-1,-1,-1,-1,-1,-1,-1,-1,-1,-1,-1,-1,-1,-1,-1,-1,-1,-1,-1,-1,-1,-1,-1,-1,-1,-1,-1,-1,-1],"split_conditions":[6.339327E-1,9.1443825E-1,1.033E3,1.7460282E0,1.8506813E0,9.96E2,1.1995E3,1.744483E0,1.435E3,7.155E2,2.525E3,1.8601732E0,1.7743151E0,5E-1,1.8374748E0,9.1443825E-1,3.9911768E2,8.835E2,1.5725E3,1.7125771E0,5E-1,4.454593E2,-1.8411476E1,9.51E2,8.75E2,9.1443825E-1,8.5020554E-1,5E-1,1.6460054E0,1.8225098E0,1.8402803E0,1.735E3,1.379E3,8.6E2,2.6329452E-1,5E-1,1.75E3,-1.5391664E1,1.8200166E0,5E-1,-2.085023E2,1.6909857E0,1.7995027E0,-4.392041E0,6.615047E2,2.3346275E2,5E-1,-7.325281E1,9.929034E-1,1.149E3,1.7936966E0,1.1933233E2,8.05509E-1,1.8146179E0,1.675E3,-3.4879208E2,2.28E3,-2.1165318E0,-9.955932E1,2.6181708E2,-5.931199E1,-2.755575E1,4.92381E2,-3.626735E2,-1.0812283E2,5.2599176E2,9.950113E1,-2.6647668E2,8.1991684E1,2.3010924E2,4.3571743E1,-4.891949E1,2.0492886E2,-1.4216901E1,3.632517E1,-8.144116E1,-4.7814502E2,-3.1638575E1,-1.900635E2,6.965782E2,-3.6594803E1,1.876823E1,-3.7618207E2,4.4448715E2,-1.1355239E2,-1.6006879E2,-3.0897995E2,2.5524572E1,-1.4584628E2,1.75554E1,3.9195694E2,-5.4373634E1,9.602743E0],"split_indices":[3,4,0,1,1,0,0,1,0,0,0,1,1,6,1,2,0,0,0,1,8,0,0,0,0,2,2,8,1,1,1,0,0,0,3,6,0,0,1,5,0,1,1,0,0,0,6,0,2,0,1,0,3,1,0,0,0,0,0,0,0,0,0,0,0,0,0,0,0,0,0,0,0,0,0,0,0,0,0,0,0,0,0,0,0,0,0,0,0,0,0,0,0],"split_type":[0,0,0,0,0,0,0,0,0,0,0,0,0,0,0,0,0,0,0,0,0,0,0,0,0,0,0,0,0,0,0,0,0,0,0,0,0,0,0,0,0,0,0,0,0,0,0,0,0,0,0,0,0,0,0,0,0,0,0,0,0,0,0,0,0,0,0,0,0,0,0,0,0,0,0,0,0,0,0,0,0,0,0,0,0,0,0,0,0,0,0,0,0],"sum_hessian":[2.118E3,1.469E3,6.49E2,1.448E3,2.1E1,3.47E2,3.02E2,1.356E3,9.2E1,1.7E1,4E0,3.31E2,1.6E1,4.2E1,2.6E2,1.354E3,2E0,7.7E1,1.5E1,6E0,1.1E1,3E0,1E0,3.29E2,2E0,9E0,7E0,1.9E1,2.3E1,1.57E2,1.03E2,1.348E3,6E0,4.7E1,3E1,4E0,1.1E1,2E0,4E0,9E0,2E0,3.16E2,1.3E1,1E0,1E0,6E0,3E0,1E0,6E0,1.3E1,6E0,1E0,2.2E1,1.4E2,1.7E1,2E0,1.01E2,1.332E3,1.6E1,4E0,2E0,4.6E1,1E0,5E0,2.5E1,2E0,2E0,3E0,8E0,3E0,1E0,8E0,1E0,1.33E2,1.83E2,1.2E1,1E0,1E0,2E0,5E0,1E0,1E1,3E0,4E0,2E0,1.7E1,5E0,1.28E2,1.2E1,1.3E1,4E0,5.5E1,4.6E1],"tree_param":{"num_deleted":"0","num_feature":"10","num_nodes":"93","size_leaf_vector":"0"}},{"base_weights":[2.177643E0,1.606381E0,4.0457227E2,2.5878205E0,-3.4412802E2,9.987012E1,5.0698828E2,-1.7695897E0,6.3977695E1,-4.5478876E2,1.0458789E2,-6.2537484E-2,-4.8119846E2,4.2446603E2,7.3116593E0,-1.2579386E0,1.1750481E3,-7.9324304E2,1.9927531E2,4.0568094E0,1.144588E3,-6.382979E2,4.035735E1,1.1500949E0,-2.7739957E2,-1.9594148E2,-1.1261302E3,9.9162866E2,-6.927157E2,1.23793236E2,-7.1639014E2,1.4879564E3,1.90778E2,-1.1138126E3,-1.220874E2,2.923119E2,-4.988343E1],"categories":[],"categories_nodes":[],"categories_segments":[],"categories_sizes":[],"default_left":[1,1,1,1,1,0,0,1,1,0,0,1,1,1,1,1,0,1,1,1,1,1,1,0,0,0,0,0,0,0,0,0,0,0,0,0,0],"id":24,"left_children":[1,3,5,7,9,-1,-1,11,13,-1,-1,15,17,19,21,23,-1,25,27,29,31,33,35,-1,-1,-1,-1,-1,-1,-1,-1,-1,-1,-1,-1,-1,-1],"loss_changes":[4.8645044E5,7.192254E5,4.2986156E4,5.6507506E5,3.4549688E5,0E0,0E0,1.614693E6,2.856739E6,0E0,0E0,2.7645792E6,1.6444409E6,5.747529E6,2.6285828E6,1.307627E6,0E0,7.735145E5,2.8072328E6,1.2101128E6,2.008689E6,1.3368115E6,2.6747605E6,0E0,0E0,0E0,0E0,0E0,0E0,0E0,0E0,0E0,0E0,0E0,0E0,0E0,0E0],"parents":[2147483647,0,0,1,1,2,2,3,3,4,4,7,7,8,8,11,11,12,12,13,13,14,14,15,15,17,17,18,18,19,19,20,20,21,21,22,22],"right_children":[2,4,6,8,10,-1,-1,12,14,-1,-1,16,18,20,22,24,-1,26,28,30,32,34,36,-1,-1,-1,-1,-1,-1,-1,-1,-1,-1,-1,-1,-1,-1],"split_conditions":[1.053545E0,9.929034E-1,2.25E3,1.765E3,2.685E3,2.9961037E1,1.520965E2,1.729E3,1.8255E3,-1.3643663E2,3.1376368E1,1.71E3,9.929034E-1,8.05509E-1,1.872E3,1.662E3,3.5251443E2,8.5020554E-1,1.7940829E0,1.8841084E0,9.1443825E-1,1.7793646E0,1.788909E0,3.4502846E-1,-8.321987E1,-5.8782448E1,-3.3783908E2,2.9748862E2,-2.0781471E2,3.7137974E1,-2.1491705E2,4.4638693E2,5.7233402E1,-3.341438E2,-3.662622E1,8.769357E1,-1.496503E1],"split_indices":[4,4,0,0,0,0,0,0,0,0,0,0,2,3,0,0,0,2,1,1,3,1,1,0,0,0,0,0,0,0,0,0,0,0,0,0,0],"split_type":[0,0,0,0,0,0,0,0,0,0,0,0,0,0,0,0,0,0,0,0,0,0,0,0,0,0,0,0,0,0,0,0,0,0,0,0,0],"sum_hessian":[2.118E3,2.116E3,2E0,2.111E3,5E0,1E0,1E0,1.972E3,1.39E2,4E0,1E0,1.966E3,6E0,1.8E1,1.21E2,1.965E3,1E0,4E0,2E0,1.2E1,6E0,5E0,1.16E2,1.949E3,1.6E1,2E0,2E0,1E0,1E0,1.1E1,1E0,4E0,2E0,2E0,3E0,3E1,8.6E1],"tree_param":{"num_deleted":"0","num_feature":"10","num_nodes":"37","size_leaf_vector":"0"}},{"base_weights":[1.5562259E0,-2.215773E0,7.3927864E1,6.3010583E0,-5.351677E1,5.619151E2,4.390935E1,9.106379E-1,1.5540984E3,-8.9267474E2,-4.449575E1,9.263898E1,1.0003115E3,-2.4427171E2,9.366292E1,-4.4880705E0,1.7120743E2,-1.3069919E2,2.2708757E1,1.3133063E2,-5.893401E2,6.292767E2,5.283149E1,6.317877E0,-2.7174155E2,-2.3821751E2,6.75855E2,-8.8799036E2,-7.8249794E1,1.5030684E3,4.062332E0,-9.214127E1,2.2117815E2,-8.246149E1,-8.76975E2,-1.9274377E2,1.515545E3,3.9557333E2,-6.67899E0,1.2976824E0,8.980949E2,-1.7690918E2,-8.4215295E2,3.852891E2,-4.101479E2,1.6699484E3,2.517156E2,7.114554E1,-2.3402333E2,9.429014E1,-1.9632465E2,1.24157425E2,3.5314087E2,8.428843E2,-6.718715E2,-2.4858057E2,-1.2616699E1,3.992268E2,